booster[0]:
0:[f12<1802.5] yes=1,no=2,missing=1
	1:[f18<1.5] yes=3,no=4,missing=3
		3:[f12<1499.5] yes=7,no=8,missing=7
			7:[f45<15.5] yes=15,no=16,missing=15
				15:leaf=-0.0365854
				16:leaf=0.0609023
			8:[f10<2534.25] yes=17,no=18,missing=17
				17:leaf=-0.0329791
				18:leaf=0.0158621
		4:[f12<962.917] yes=9,no=10,missing=9
			9:[f18<2.5] yes=19,no=20,missing=19
				19:leaf=0.020979
				20:leaf=-0.0448438
			10:[f38<-73.9745] yes=21,no=22,missing=21
				21:leaf=-0.043864
				22:leaf=-0.0591267
	2:[f12<2526.25] yes=5,no=6,missing=5
		5:[f44<0.5] yes=11,no=12,missing=11
			11:[f31<0.5] yes=23,no=24,missing=23
				23:leaf=-0.0651569
				24:leaf=-0.0262136
			12:[f18<1.5] yes=25,no=26,missing=25
				25:leaf=-0.0301578
				26:leaf=-0.065819
		6:[f12<3350.5] yes=13,no=14,missing=13
			13:[f31<0.5] yes=27,no=28,missing=27
				27:leaf=-0.0692545
				28:leaf=-0.0370787
			14:[f46<18.5] yes=29,no=30,missing=29
				29:leaf=-0.0740507
				30:leaf=-0.0458824
booster[1]:
0:[f32<0.5] yes=1,no=2,missing=1
	1:[f26<3080.81] yes=3,no=4,missing=3
		3:[f11<1.83333] yes=7,no=8,missing=7
			7:[f49<1.02514] yes=15,no=16,missing=15
				15:leaf=-0.0364276
				16:leaf=-0.0566885
			8:[f37<0.5] yes=17,no=18,missing=17
				17:leaf=-0.0345371
				18:leaf=-0.00462112
		4:[f33<0.5] yes=9,no=10,missing=9
			9:[f9<3657.5] yes=19,no=20,missing=19
				19:leaf=-0.0147959
				20:leaf=-0.0430336
			10:[f4<3190.35] yes=21,no=22,missing=21
				21:leaf=0.0118367
				22:leaf=-0.0266476
	2:[f8<8043.75] yes=5,no=6,missing=5
		5:[f11<1.41667] yes=11,no=12,missing=11
			11:[f9<3741] yes=23,no=24,missing=23
				23:leaf=-0.0091534
				24:leaf=-0.0316364
			12:[f36<40.7963] yes=25,no=26,missing=25
				25:leaf=0.00178265
				26:leaf=-0.0293928
		6:[f3<6260] yes=13,no=14,missing=13
			13:[f49<1.8233] yes=27,no=28,missing=27
				27:leaf=-4.15846e-09
				28:leaf=-0.0582524
			14:[f46<17.5] yes=29,no=30,missing=29
				29:leaf=-0.071964
				30:leaf=-0.0157895
booster[2]:
0:[f12<2500.5] yes=1,no=2,missing=1
	1:[f47<0.5] yes=3,no=4,missing=3
		3:[f42<7.32149] yes=7,no=8,missing=7
			7:[f14<0.0417351] yes=15,no=16,missing=15
				15:leaf=0.0106599
				16:leaf=0.0857143
			8:[f12<948.75] yes=17,no=18,missing=17
				17:leaf=0.0757282
				18:leaf=0.140643
		4:[f42<7.60912] yes=9,no=10,missing=9
			9:[f48<0.5] yes=19,no=20,missing=19
				19:leaf=-0.00140053
				20:leaf=0.0622407
			10:[f12<1674.5] yes=21,no=22,missing=21
				21:leaf=0.0467922
				22:leaf=0.0797912
	2:[f42<8.10877] yes=5,no=6,missing=5
		5:[f32<0.5] yes=11,no=12,missing=11
			11:[f37<0.5] yes=23,no=24,missing=23
				23:leaf=0.129588
				24:leaf=0.101405
			12:[f10<3442.2] yes=25,no=26,missing=25
				25:leaf=0.0933646
				26:leaf=0.0656598
		6:[f32<0.5] yes=13,no=14,missing=13
			13:[f31<0.5] yes=27,no=28,missing=27
				27:leaf=0.140322
				28:leaf=0.0958944
			14:[f42<8.83514] yes=29,no=30,missing=29
				29:leaf=0.116664
				30:leaf=0.144536
booster[3]:
0:[f42<7.50246] yes=1,no=2,missing=1
	1:[f12<1499.5] yes=3,no=4,missing=3
		3:[f14<0.0110029] yes=7,no=8,missing=7
			7:[f26<12506.9] yes=15,no=16,missing=15
				15:leaf=-0.0109634
				16:leaf=-0.0668486
			8:[f26<7345.91] yes=17,no=18,missing=17
				17:leaf=0.0253858
				18:leaf=0.0805399
		4:[f41<1843.75] yes=9,no=10,missing=9
			9:[f12<1554] yes=19,no=20,missing=19
				19:leaf=-0.012292
				20:leaf=-0.0476312
			10:[f12<1612.5] yes=21,no=22,missing=21
				21:leaf=0.0639604
				22:leaf=-0.00782737
	2:[f12<1504.33] yes=5,no=6,missing=5
		5:[f42<7.73936] yes=11,no=12,missing=11
			11:[f2<1895.45] yes=23,no=24,missing=23
				23:leaf=-0.0398994
				24:leaf=0.000823613
			12:[f26<1173.78] yes=25,no=26,missing=25
				25:leaf=-0.0306924
				26:leaf=-0.0544407
		6:[f42<7.83479] yes=13,no=14,missing=13
			13:[f44<0.5] yes=27,no=28,missing=27
				27:leaf=-0.0592103
				28:leaf=-0.0272226
			14:[f12<1750.67] yes=29,no=30,missing=29
				29:leaf=-0.0559084
				30:leaf=-0.0674271
booster[4]:
0:[f47<1.5] yes=1,no=2,missing=1
	1:[f42<7.57942] yes=3,no=4,missing=3
		3:[f32<0.5] yes=7,no=8,missing=7
			7:[f48<0.5] yes=15,no=16,missing=15
				15:leaf=-0.0248589
				16:leaf=-0.0580677
			8:leaf=0.0407704
		4:[f47<0.5] yes=9,no=10,missing=9
			9:[f19<0.5] yes=17,no=18,missing=17
				17:leaf=-0.069712
				18:leaf=-0.0289791
			10:[f42<7.95944] yes=19,no=20,missing=19
				19:leaf=-0.0355319
				20:leaf=-0.0610543
	2:[f42<8.10561] yes=5,no=6,missing=5
		5:[f44<0.5] yes=11,no=12,missing=11
			11:[f42<7.74651] yes=21,no=22,missing=21
				21:leaf=-0.00409522
				22:leaf=-0.0256398
			12:[f14<0.12579] yes=23,no=24,missing=23
				23:leaf=-0.000140048
				24:leaf=0.0180563
		6:[f11<1.46429] yes=13,no=14,missing=13
			13:[f44<0.5] yes=25,no=26,missing=25
				25:leaf=-0.0579109
				26:leaf=-0.0392583
			14:[f25<0.5] yes=27,no=28,missing=27
				27:leaf=-0.0290168
				28:leaf=-0.00404153
booster[5]:
0:[f12<2001.25] yes=1,no=2,missing=1
	1:[f47<0.5] yes=3,no=4,missing=3
		3:[f42<7.31155] yes=7,no=8,missing=7
			7:[f4<1403.75] yes=15,no=16,missing=15
				15:leaf=-0.0481181
				16:leaf=0.0476658
			8:[f12<910.5] yes=17,no=18,missing=17
				17:leaf=0.0537051
				18:leaf=0.121475
		4:[f42<7.84893] yes=9,no=10,missing=9
			9:[f48<0.5] yes=19,no=20,missing=19
				19:leaf=-0.0010615
				20:leaf=0.0603754
			10:[f38<-73.9671] yes=21,no=22,missing=21
				21:leaf=0.0402612
				22:leaf=0.0786205
	2:[f42<8.00687] yes=5,no=6,missing=5
		5:[f44<0.5] yes=11,no=12,missing=11
			11:[f47<2.5] yes=23,no=24,missing=23
				23:leaf=0.1234
				24:leaf=0.0846131
			12:[f12<2529.5] yes=25,no=26,missing=25
				25:leaf=0.0118207
				26:leaf=0.053765
		6:[f44<0.5] yes=13,no=14,missing=13
			13:[f31<0.5] yes=27,no=28,missing=27
				27:leaf=0.119602
				28:leaf=0.0767063
			14:[f42<8.41339] yes=29,no=30,missing=29
				29:leaf=0.0891713
				30:leaf=0.114208
booster[6]:
0:[f12<2008.25] yes=1,no=2,missing=1
	1:[f2<1682] yes=3,no=4,missing=3
		3:[f12<1499.5] yes=7,no=8,missing=7
			7:[f45<11.5] yes=15,no=16,missing=15
				15:leaf=-0.0273899
				16:leaf=0.0537337
			8:[f9<2390.1] yes=17,no=18,missing=17
				17:leaf=-0.0369538
				18:leaf=0.0304372
		4:[f12<669.333] yes=9,no=10,missing=9
			9:[f26<8607.28] yes=19,no=20,missing=19
				19:leaf=-0.00123657
				20:leaf=0.098903
			10:[f3<2377.5] yes=21,no=22,missing=21
				21:leaf=-0.0333601
				22:leaf=-0.0479944
	2:[f12<2700.5] yes=5,no=6,missing=5
		5:[f37<0.5] yes=11,no=12,missing=11
			11:[f14<0.185629] yes=23,no=24,missing=23
				23:leaf=-0.0643513
				24:leaf=-0.0518099
			12:[f31<0.5] yes=25,no=26,missing=25
				25:leaf=-0.0531066
				26:leaf=0.00636355
		6:[f31<0.5] yes=13,no=14,missing=13
			13:[f12<3350.5] yes=27,no=28,missing=27
				27:leaf=-0.0646114
				28:leaf=-0.0687848
			14:[f12<3213.75] yes=29,no=30,missing=29
				29:leaf=-0.0255538
				30:leaf=-0.0624818
booster[7]:
0:[f12<2551.5] yes=1,no=2,missing=1
	1:[f47<2.5] yes=3,no=4,missing=3
		3:[f47<0.5] yes=7,no=8,missing=7
			7:[f42<7.54829] yes=15,no=16,missing=15
				15:leaf=-0.0354548
				16:leaf=-0.0637724
			8:[f44<0.5] yes=17,no=18,missing=17
				17:leaf=-0.0347086
				18:leaf=0.00268789
		4:[f44<0.5] yes=9,no=10,missing=9
			9:[f42<8.0748] yes=19,no=20,missing=19
				19:leaf=-0.00523288
				20:leaf=-0.0235763
			10:[f42<8.41339] yes=21,no=22,missing=21
				21:leaf=0.0124249
				22:leaf=-0.0102254
	2:[f42<8.16123] yes=5,no=6,missing=5
		5:[f44<0.5] yes=11,no=12,missing=11
			11:[f37<0.5] yes=23,no=24,missing=23
				23:leaf=-0.0528603
				24:leaf=-0.0342101
			12:[f12<3162.5] yes=25,no=26,missing=25
				25:leaf=0.00134352
				26:leaf=-0.0233634
		6:[f37<0.5] yes=13,no=14,missing=13
			13:[f14<0.708331] yes=27,no=28,missing=27
				27:leaf=-0.0654422
				28:leaf=-0.0230332
			14:[f42<9.05017] yes=29,no=30,missing=29
				29:leaf=-0.0503858
				30:leaf=-0.0683091
booster[8]:
0:[f42<7.83281] yes=1,no=2,missing=1
	1:[f44<0.5] yes=3,no=4,missing=3
		3:[f42<7.49693] yes=7,no=8,missing=7
			7:[f48<0.5] yes=15,no=16,missing=15
				15:leaf=-0.0117045
				16:leaf=0.0578885
			8:[f18<1.5] yes=17,no=18,missing=17
				17:leaf=0.0653948
				18:leaf=0.0274688
		4:[f42<7.60513] yes=9,no=10,missing=9
			9:[f36<40.8095] yes=19,no=20,missing=19
				19:leaf=-0.0402556
				20:leaf=0.00897739
			10:[f38<-73.9745] yes=21,no=22,missing=21
				21:leaf=-0.010746
				22:leaf=0.0281135
	2:[f11<1.46429] yes=5,no=6,missing=5
		5:[f44<0.5] yes=11,no=12,missing=11
			11:[f31<0.5] yes=23,no=24,missing=23
				23:leaf=0.100825
				24:leaf=0.0463329
			12:[f42<8.05943] yes=25,no=26,missing=25
				25:leaf=0.0497173
				26:leaf=0.0890996
		6:[f44<0.5] yes=13,no=14,missing=13
			13:[f38<-73.9799] yes=27,no=28,missing=27
				27:leaf=0.0580675
				28:leaf=0.0852473
			14:[f42<8.43316] yes=29,no=30,missing=29
				29:leaf=0.0276051
				30:leaf=0.0616352
booster[9]:
0:[f42<7.55092] yes=1,no=2,missing=1
	1:[f12<1513.5] yes=3,no=4,missing=3
		3:[f42<7.52186] yes=7,no=8,missing=7
			7:[f45<15.5] yes=15,no=16,missing=15
				15:leaf=-0.024424
				16:leaf=0.048849
			8:[f1<2897.5] yes=17,no=18,missing=17
				17:leaf=-0.0360046
				18:leaf=0.0155535
		4:[f8<1997.9] yes=9,no=10,missing=9
			9:[f44<0.5] yes=19,no=20,missing=19
				19:leaf=-0.0503709
				20:leaf=-0.023574
			10:[f12<1697] yes=21,no=22,missing=21
				21:leaf=0.0401773
				22:leaf=-0.0171106
	2:[f12<1600.5] yes=5,no=6,missing=5
		5:[f38<-73.9675] yes=11,no=12,missing=11
			11:[f42<8.00936] yes=23,no=24,missing=23
				23:leaf=-0.0125841
				24:leaf=-0.0383052
			12:[f42<7.70863] yes=25,no=26,missing=25
				25:leaf=-0.0180356
				26:leaf=-0.0552598
		6:[f42<7.83479] yes=13,no=14,missing=13
			13:[f44<0.5] yes=27,no=28,missing=27
				27:leaf=-0.0562509
				28:leaf=-0.0274038
			14:[f44<0.5] yes=29,no=30,missing=29
				29:leaf=-0.0644916
				30:leaf=-0.0578369
booster[10]:
0:[f12<2521.25] yes=1,no=2,missing=1
	1:[f47<2.5] yes=3,no=4,missing=3
		3:[f47<0.5] yes=7,no=8,missing=7
			7:[f42<7.57942] yes=15,no=16,missing=15
				15:leaf=-0.0320575
				16:leaf=-0.0612631
			8:[f44<0.5] yes=17,no=18,missing=17
				17:leaf=-0.0333169
				18:leaf=0.00739381
		4:[f44<0.5] yes=9,no=10,missing=9
			9:[f42<8.04061] yes=19,no=20,missing=19
				19:leaf=-0.00447914
				20:leaf=-0.0204546
			10:[f36<40.7966] yes=21,no=22,missing=21
				21:leaf=0.00877718
				22:leaf=-0.0173503
	2:[f42<8.16123] yes=5,no=6,missing=5
		5:[f44<0.5] yes=11,no=12,missing=11
			11:[f32<0.5] yes=23,no=24,missing=23
				23:leaf=-0.0496584
				24:leaf=-0.0284311
			12:[f32<0.5] yes=25,no=26,missing=25
				25:leaf=-0.030157
				26:leaf=0.00135872
		6:[f37<0.5] yes=13,no=14,missing=13
			13:[f31<0.5] yes=27,no=28,missing=27
				27:leaf=-0.0634195
				28:leaf=-0.0280169
			14:[f42<8.83891] yes=29,no=30,missing=29
				29:leaf=-0.0455742
				30:leaf=-0.062149
booster[11]:
0:[f12<2500.5] yes=1,no=2,missing=1
	1:[f47<1.5] yes=3,no=4,missing=3
		3:[f42<7.3182] yes=7,no=8,missing=7
			7:[f47<0.5] yes=15,no=16,missing=15
				15:leaf=0.0167881
				16:leaf=-0.0392295
			8:[f12<948.75] yes=17,no=18,missing=17
				17:leaf=0.0326219
				18:leaf=0.100128
		4:[f42<7.60912] yes=9,no=10,missing=9
			9:[f12<1687.5] yes=19,no=20,missing=19
				19:leaf=-0.015575
				20:leaf=0.0240386
			10:[f44<0.5] yes=21,no=22,missing=21
				21:leaf=0.0568891
				22:leaf=0.0285683
	2:[f42<8.16123] yes=5,no=6,missing=5
		5:[f44<0.5] yes=11,no=12,missing=11
			11:[f10<3988] yes=23,no=24,missing=23
				23:leaf=0.09092
				24:leaf=0.0703856
			12:[f32<0.5] yes=25,no=26,missing=25
				25:leaf=0.0751853
				26:leaf=0.0420547
		6:[f37<0.5] yes=13,no=14,missing=13
			13:[f14<0.887931] yes=27,no=28,missing=27
				27:leaf=0.103345
				28:leaf=0.0465708
			14:[f42<8.83891] yes=29,no=30,missing=29
				29:leaf=0.0874477
				30:leaf=0.10205
booster[12]:
0:[f42<7.50246] yes=1,no=2,missing=1
	1:[f12<1427.5] yes=3,no=4,missing=3
		3:[f45<18.5] yes=7,no=8,missing=7
			7:[f26<12484.1] yes=15,no=16,missing=15
				15:leaf=0.0168275
				16:leaf=-0.0640337
			8:[f26<4220.67] yes=17,no=18,missing=17
				17:leaf=0.0154202
				18:leaf=0.0664206
		4:[f5<2251.5] yes=9,no=10,missing=9
			9:[f48<0.5] yes=19,no=20,missing=19
				19:leaf=-0.00773252
				20:leaf=-0.0446636
			10:[f47<1.5] yes=21,no=22,missing=21
				21:leaf=-0.0475712
				22:leaf=0.0624188
	2:[f12<1581.75] yes=5,no=6,missing=5
		5:[f38<-73.9742] yes=11,no=12,missing=11
			11:[f42<8.00936] yes=23,no=24,missing=23
				23:leaf=-0.00639059
				24:leaf=-0.0340136
			12:[f42<7.70863] yes=25,no=26,missing=25
				25:leaf=-0.0199594
				26:leaf=-0.0506546
		6:[f42<7.82425] yes=13,no=14,missing=13
			13:[f44<0.5] yes=27,no=28,missing=27
				27:leaf=-0.0519832
				28:leaf=-0.0230855
			14:[f44<0.5] yes=29,no=30,missing=29
				29:leaf=-0.062243
				30:leaf=-0.0552449
booster[13]:
0:[f47<2.5] yes=1,no=2,missing=1
	1:[f47<0.5] yes=3,no=4,missing=3
		3:[f42<7.52564] yes=7,no=8,missing=7
			7:[f28<19511.4] yes=15,no=16,missing=15
				15:leaf=-0.0350517
				16:leaf=0.0283773
			8:[f42<7.7853] yes=17,no=18,missing=17
				17:leaf=-0.0530345
				18:leaf=-0.0643417
		4:[f42<7.92388] yes=9,no=10,missing=9
			9:[f48<0.5] yes=19,no=20,missing=19
				19:leaf=-0.0163198
				20:leaf=-0.0461344
			10:[f14<0.429658] yes=21,no=22,missing=21
				21:leaf=-0.0489246
				22:leaf=-0.00795938
	2:[f42<8.10561] yes=5,no=6,missing=5
		5:[f18<1.5] yes=11,no=12,missing=11
			11:[f42<7.8336] yes=23,no=24,missing=23
				23:leaf=-0.000826505
				24:leaf=-0.0205878
			12:[f38<-73.9738] yes=25,no=26,missing=25
				25:leaf=0.0178973
				26:leaf=-0.0023516
		6:[f11<1.46429] yes=13,no=14,missing=13
			13:[f32<0.5] yes=27,no=28,missing=27
				27:leaf=-0.0503762
				28:leaf=-0.0345059
			14:[f46<5.5] yes=29,no=30,missing=29
				29:leaf=-0.0240756
				30:leaf=0.000672634
booster[14]:
0:[f12<2012.25] yes=1,no=2,missing=1
	1:[f12<1564.75] yes=3,no=4,missing=3
		3:[f38<-73.9669] yes=7,no=8,missing=7
			7:[f14<0.0367996] yes=15,no=16,missing=15
				15:leaf=0.0302454
				16:leaf=-0.00682933
			8:[f41<2021] yes=17,no=18,missing=17
				17:leaf=-0.000171311
				18:leaf=0.0443259
		4:[f18<1.5] yes=9,no=10,missing=9
			9:[f7<1975.6] yes=19,no=20,missing=19
				19:leaf=0.0481775
				20:leaf=0.007909
			10:[f36<40.7549] yes=21,no=22,missing=21
				21:leaf=0.0441487
				22:leaf=0.0744064
	2:[f12<3081.25] yes=5,no=6,missing=5
		5:[f44<0.5] yes=11,no=12,missing=11
			11:[f37<0.5] yes=23,no=24,missing=23
				23:leaf=0.0772951
				24:leaf=0.058731
			12:[f18<1.5] yes=25,no=26,missing=25
				25:leaf=0.025204
				26:leaf=0.07362
		6:[f12<3502.5] yes=13,no=14,missing=13
			13:[f44<0.5] yes=27,no=28,missing=27
				27:leaf=0.0844906
				28:leaf=0.0639231
			14:[f37<0.5] yes=29,no=30,missing=29
				29:leaf=0.0944762
				30:leaf=0.0864412
booster[15]:
0:[f42<7.49693] yes=1,no=2,missing=1
	1:[f42<7.27897] yes=3,no=4,missing=3
		3:[f14<0.0161158] yes=7,no=8,missing=7
			7:[f45<1.5] yes=15,no=16,missing=15
				15:leaf=0.0080612
				16:leaf=-0.0567619
			8:[f47<4.5] yes=17,no=18,missing=17
				17:leaf=0.0368868
				18:leaf=0.0833822
		4:[f6<1896] yes=9,no=10,missing=9
			9:[f48<0.5] yes=19,no=20,missing=19
				19:leaf=-0.00918396
				20:leaf=-0.0450221
			10:[f42<7.41366] yes=21,no=22,missing=21
				21:leaf=0.06012
				22:leaf=0.00707666
	2:[f42<7.83281] yes=5,no=6,missing=5
		5:[f3<2597.2] yes=11,no=12,missing=11
			11:[f44<0.5] yes=23,no=24,missing=23
				23:leaf=-0.0472029
				24:leaf=-0.0230622
			12:[f11<1.41667] yes=25,no=26,missing=25
				25:leaf=-0.0229541
				26:leaf=0.0360497
		6:[f11<1.46429] yes=13,no=14,missing=13
			13:[f42<8.11687] yes=27,no=28,missing=27
				27:leaf=-0.0555393
				28:leaf=-0.0621591
			14:[f44<0.5] yes=29,no=30,missing=29
				29:leaf=-0.0533045
				30:leaf=-0.0386034
booster[16]:
0:[f12<2802.5] yes=1,no=2,missing=1
	1:[f47<1.5] yes=3,no=4,missing=3
		3:[f47<0.5] yes=7,no=8,missing=7
			7:[f38<-73.9218] yes=15,no=16,missing=15
				15:leaf=-0.0566484
				16:leaf=-0.0162807
			8:[f12<1736.25] yes=17,no=18,missing=17
				17:leaf=-0.0117547
				18:leaf=-0.0404611
		4:[f44<0.5] yes=9,no=10,missing=9
			9:[f12<2301.25] yes=19,no=20,missing=19
				19:leaf=-0.00728701
				20:leaf=-0.0291486
			10:[f42<8.41339] yes=21,no=22,missing=21
				21:leaf=0.0106043
				22:leaf=-0.0106258
	2:[f42<8.16123] yes=5,no=6,missing=5
		5:[f44<0.5] yes=11,no=12,missing=11
			11:[f10<3984.15] yes=23,no=24,missing=23
				23:leaf=-0.048217
				24:leaf=-0.0254676
			12:[f10<4696.5] yes=25,no=26,missing=25
				25:leaf=-0.0162297
				26:leaf=0.0581799
		6:[f46<5.5] yes=13,no=14,missing=13
			13:[f42<8.24289] yes=27,no=28,missing=27
				27:leaf=-0.0505494
				28:leaf=-0.0617947
			14:[f26<443.69] yes=29,no=30,missing=29
				29:leaf=-0.028979
				30:leaf=-0.0492395
booster[17]:
0:[f12<2500.5] yes=1,no=2,missing=1
	1:[f12<1650.4] yes=3,no=4,missing=3
		3:[f42<7.74045] yes=7,no=8,missing=7
			7:[f48<0.5] yes=15,no=16,missing=15
				15:leaf=-0.023364
				16:leaf=0.0424455
			8:[f36<40.7952] yes=17,no=18,missing=17
				17:leaf=0.0224646
				18:leaf=0.0694844
		4:[f42<8.14395] yes=9,no=10,missing=9
			9:[f44<0.5] yes=19,no=20,missing=19
				19:leaf=0.046824
				20:leaf=0.00300037
			10:[f44<0.5] yes=21,no=22,missing=21
				21:leaf=0.0703309
				22:leaf=0.0495174
	2:[f42<8.16123] yes=5,no=6,missing=5
		5:[f44<0.5] yes=11,no=12,missing=11
			11:[f40<3191.3] yes=23,no=24,missing=23
				23:leaf=0.0770055
				24:leaf=0.0568617
			12:[f9<3149] yes=25,no=26,missing=25
				25:leaf=0.0561663
				26:leaf=0.0323089
		6:[f37<0.5] yes=13,no=14,missing=13
			13:[f14<0.887931] yes=27,no=28,missing=27
				27:leaf=0.0875208
				28:leaf=0.0400655
			14:[f42<8.83978] yes=29,no=30,missing=29
				29:leaf=0.0735601
				30:leaf=0.088898
booster[18]:
0:[f42<7.60365] yes=1,no=2,missing=1
	1:[f12<1612.5] yes=3,no=4,missing=3
		3:[f48<0.5] yes=7,no=8,missing=7
			7:[f14<0.00661026] yes=15,no=16,missing=15
				15:leaf=-0.0230441
				16:leaf=0.0316629
			8:[f10<3125] yes=17,no=18,missing=17
				17:leaf=-0.0254682
				18:leaf=0.0708582
		4:[f38<-73.9751] yes=9,no=10,missing=9
			9:[f27<418.564] yes=19,no=20,missing=19
				19:leaf=0.0313664
				20:leaf=-0.00980613
			10:[f47<1.5] yes=21,no=22,missing=21
				21:leaf=-0.0627999
				22:leaf=-0.0299187
	2:[f12<1576.25] yes=5,no=6,missing=5
		5:[f38<-73.9709] yes=11,no=12,missing=11
			11:[f42<8.00936] yes=23,no=24,missing=23
				23:leaf=-0.00209963
				24:leaf=-0.0311203
			12:[f42<7.82244] yes=25,no=26,missing=25
				25:leaf=-0.0320912
				26:leaf=-0.0500845
		6:[f12<2700.5] yes=13,no=14,missing=13
			13:[f38<-73.9743] yes=27,no=28,missing=27
				27:leaf=-0.045788
				28:leaf=-0.0556033
			14:[f42<8.11597] yes=29,no=30,missing=29
				29:leaf=-0.0549904
				30:leaf=-0.0615819
booster[19]:
0:[f12<3001.5] yes=1,no=2,missing=1
	1:[f47<0.5] yes=3,no=4,missing=3
		3:[f42<7.52564] yes=7,no=8,missing=7
			7:[f26<13448] yes=15,no=16,missing=15
				15:leaf=-0.0295849
				16:leaf=0.0287991
			8:[f12<1208.33] yes=17,no=18,missing=17
				17:leaf=-0.0391894
				18:leaf=-0.0600187
		4:[f12<1700.5] yes=9,no=10,missing=9
			9:[f38<-73.9669] yes=19,no=20,missing=19
				19:leaf=0.0133451
				20:leaf=-0.00601573
			10:[f42<8.29467] yes=21,no=22,missing=21
				21:leaf=-0.00715731
				22:leaf=-0.0300567
	2:[f42<8.16123] yes=5,no=6,missing=5
		5:[f45<54.5] yes=11,no=12,missing=11
			11:[f40<3608.99] yes=23,no=24,missing=23
				23:leaf=-0.0561103
				24:leaf=-0.0197034
			12:[f10<4709] yes=25,no=26,missing=25
				25:leaf=-0.0260777
				26:leaf=0.024775
		6:[f31<0.5] yes=13,no=14,missing=13
			13:[f42<8.37678] yes=27,no=28,missing=27
				27:leaf=-0.0464798
				28:leaf=-0.0566887
			14:[f38<-73.991] yes=29,no=30,missing=29
				29:leaf=0.0366436
				30:leaf=-0.0438339
booster[20]:
0:[f42<8.00936] yes=1,no=2,missing=1
	1:[f47<1.5] yes=3,no=4,missing=3
		3:[f42<7.31155] yes=7,no=8,missing=7
			7:[f38<-73.9232] yes=15,no=16,missing=15
				15:leaf=0.0175913
				16:leaf=-0.0343964
			8:[f47<0.5] yes=17,no=18,missing=17
				17:leaf=0.0829765
				18:leaf=0.0575479
		4:[f42<7.60912] yes=9,no=10,missing=9
			9:[f36<40.7678] yes=19,no=20,missing=19
				19:leaf=-0.0174338
				20:leaf=0.0189754
			10:[f7<3054.5] yes=21,no=22,missing=21
				21:leaf=0.0418667
				22:leaf=0.00895997
	2:[f11<1.46429] yes=5,no=6,missing=5
		5:[f44<0.5] yes=11,no=12,missing=11
			11:[f31<0.5] yes=23,no=24,missing=23
				23:leaf=0.0765004
				24:leaf=0.0395127
			12:[f42<8.3496] yes=25,no=26,missing=25
				25:leaf=0.0503979
				26:leaf=0.0708415
		6:[f2<2852.3] yes=13,no=14,missing=13
			13:[f14<0.88252] yes=27,no=28,missing=27
				27:leaf=0.0704044
				28:leaf=0.00326049
			14:[f42<8.55593] yes=29,no=30,missing=29
				29:leaf=0.0282856
				30:leaf=0.056669
booster[21]:
0:[f42<7.60365] yes=1,no=2,missing=1
	1:[f12<1507.5] yes=3,no=4,missing=3
		3:[f42<7.52186] yes=7,no=8,missing=7
			7:[f28<12792.8] yes=15,no=16,missing=15
				15:leaf=0.0142006
				16:leaf=0.0544781
			8:[f7<2140] yes=17,no=18,missing=17
				17:leaf=-0.0421866
				18:leaf=0.00973421
		4:[f9<2091.5] yes=9,no=10,missing=9
			9:[f12<1752.5] yes=19,no=20,missing=19
				19:leaf=-0.0297463
				20:leaf=-0.0547518
			10:[f12<1777.5] yes=21,no=22,missing=21
				21:leaf=0.0188974
				22:leaf=-0.0211226
	2:[f12<1600.5] yes=5,no=6,missing=5
		5:[f26<1144.09] yes=11,no=12,missing=11
			11:[f36<40.7658] yes=23,no=24,missing=23
				23:leaf=-0.0153799
				24:leaf=-0.0481048
			12:[f42<7.93916] yes=25,no=26,missing=25
				25:leaf=-0.0342485
				26:leaf=-0.0488361
		6:[f42<7.83479] yes=13,no=14,missing=13
			13:[f46<4.5] yes=27,no=28,missing=27
				27:leaf=-0.050071
				28:leaf=-0.0315623
			14:[f12<1750.67] yes=29,no=30,missing=29
				29:leaf=-0.0460512
				30:leaf=-0.0562219
booster[22]:
0:[f12<3001.5] yes=1,no=2,missing=1
	1:[f47<0.5] yes=3,no=4,missing=3
		3:[f40<2092.49] yes=7,no=8,missing=7
			7:[f12<1812.5] yes=15,no=16,missing=15
				15:leaf=-0.0142667
				16:leaf=-0.0620771
			8:[f12<806.25] yes=17,no=18,missing=17
				17:leaf=-0.0118226
				18:leaf=-0.0564223
		4:[f44<0.5] yes=9,no=10,missing=9
			9:[f12<2311.25] yes=19,no=20,missing=19
				19:leaf=-0.006347
				20:leaf=-0.0256426
			10:[f14<0.126235] yes=21,no=22,missing=21
				21:leaf=-0.00231412
				22:leaf=0.0135446
	2:[f32<0.5] yes=5,no=6,missing=5
		5:[f12<3701.5] yes=11,no=12,missing=11
			11:[f31<0.5] yes=23,no=24,missing=23
				23:leaf=-0.0451502
				24:leaf=0.0356843
			12:[f35<1.5] yes=25,no=26,missing=25
				25:leaf=-0.0578737
				26:leaf=-0.0460762
		6:[f10<6095.5] yes=13,no=14,missing=13
			13:[f44<0.5] yes=27,no=28,missing=27
				27:leaf=-0.0360971
				28:leaf=-0.0141383
			14:[f47<12.5] yes=29,no=30,missing=29
				29:leaf=-0.0537992
				30:leaf=0.0283769
booster[23]:
0:[f12<2523.25] yes=1,no=2,missing=1
	1:[f44<0.5] yes=3,no=4,missing=3
		3:[f42<7.6111] yes=7,no=8,missing=7
			7:[f48<0.5] yes=15,no=16,missing=15
				15:leaf=0.000951216
				16:leaf=0.0495554
			8:[f12<1522.92] yes=17,no=18,missing=17
				17:leaf=0.0300143
				18:leaf=0.0526903
		4:[f42<8.01102] yes=9,no=10,missing=9
			9:[f28<4512.96] yes=19,no=20,missing=19
				19:leaf=-0.0220412
				20:leaf=0.0128259
			10:[f38<-73.9673] yes=21,no=22,missing=21
				21:leaf=0.0176898
				22:leaf=0.0522525
	2:[f32<0.5] yes=5,no=6,missing=5
		5:[f42<8.11687] yes=11,no=12,missing=11
			11:[f8<3421.75] yes=23,no=24,missing=23
				23:leaf=0.069042
				24:leaf=0.0441681
			12:[f46<7.5] yes=25,no=26,missing=25
				25:leaf=0.076579
				26:leaf=0.0664015
		6:[f42<8.16152] yes=13,no=14,missing=13
			13:[f44<0.5] yes=27,no=28,missing=27
				27:leaf=0.0497795
				28:leaf=0.0262231
			14:[f42<8.83455] yes=29,no=30,missing=29
				29:leaf=0.0612529
				30:leaf=0.0790726
booster[24]:
0:[f42<7.49693] yes=1,no=2,missing=1
	1:[f12<1518] yes=3,no=4,missing=3
		3:[f14<0.0107162] yes=7,no=8,missing=7
			7:[f20<1.46083e+06] yes=15,no=16,missing=15
				15:leaf=-0.0655831
				16:leaf=-0.0137622
			8:[f12<848.5] yes=17,no=18,missing=17
				17:leaf=0.0848118
				18:leaf=0.031296
		4:[f28<6535.53] yes=9,no=10,missing=9
			9:[f12<1700.5] yes=19,no=20,missing=19
				19:leaf=0.034114
				20:leaf=-0.00617432
			10:[f27<367.066] yes=21,no=22,missing=21
				21:leaf=-0.0459937
				22:leaf=-0.0163401
	2:[f12<1581.75] yes=5,no=6,missing=5
		5:[f36<40.7793] yes=11,no=12,missing=11
			11:[f28<6097.67] yes=23,no=24,missing=23
				23:leaf=-0.0173865
				24:leaf=-0.0377208
			12:[f42<7.75469] yes=25,no=26,missing=25
				25:leaf=-0.0191315
				26:leaf=-0.050175
		6:[f42<7.82425] yes=13,no=14,missing=13
			13:[f37<0.5] yes=27,no=28,missing=27
				27:leaf=-0.0454823
				28:leaf=-0.0251059
			14:[f12<2051.75] yes=29,no=30,missing=29
				29:leaf=-0.0464823
				30:leaf=-0.0558998
booster[25]:
0:[f12<3159.5] yes=1,no=2,missing=1
	1:[f47<2.5] yes=3,no=4,missing=3
		3:[f47<0.5] yes=7,no=8,missing=7
			7:[f42<7.49637] yes=15,no=16,missing=15
				15:leaf=-0.0181603
				16:leaf=-0.0548086
			8:[f37<0.5] yes=17,no=18,missing=17
				17:leaf=-0.0323607
				18:leaf=-0.00626783
		4:[f12<1674.5] yes=9,no=10,missing=9
			9:[f36<40.7853] yes=19,no=20,missing=19
				19:leaf=0.0105656
				20:leaf=-0.0120643
			10:[f42<8.29467] yes=21,no=22,missing=21
				21:leaf=-0.00473029
				22:leaf=-0.0269381
	2:[f42<8.36625] yes=5,no=6,missing=5
		5:[f7<3976] yes=11,no=12,missing=11
			11:[f33<0.5] yes=23,no=24,missing=23
				23:leaf=-0.0465724
				24:leaf=-0.0256682
			12:[f46<4.5] yes=25,no=26,missing=25
				25:leaf=-0.0317864
				26:leaf=0.0246534
		6:[f45<259.5] yes=13,no=14,missing=13
			13:[f14<0.912132] yes=27,no=28,missing=27
				27:leaf=-0.0549925
				28:leaf=-0.00483173
			14:[f46<6.5] yes=29,no=30,missing=29
				29:leaf=-0.0567313
				30:leaf=0.00170274
booster[26]:
0:[f12<2523.25] yes=1,no=2,missing=1
	1:[f47<0.5] yes=3,no=4,missing=3
		3:[f42<7.49637] yes=7,no=8,missing=7
			7:[f12<1497.5] yes=15,no=16,missing=15
				15:leaf=0.00921568
				16:leaf=0.0646079
			8:[f12<793.75] yes=17,no=18,missing=17
				17:leaf=0.0344756
				18:leaf=0.0789662
		4:[f12<1564.75] yes=9,no=10,missing=9
			9:[f38<-73.9669] yes=19,no=20,missing=19
				19:leaf=-0.007794
				20:leaf=0.0229672
			10:[f42<8.13373] yes=21,no=22,missing=21
				21:leaf=0.0240009
				22:leaf=0.0453283
	2:[f42<8.10122] yes=5,no=6,missing=5
		5:[f37<0.5] yes=11,no=12,missing=11
			11:[f8<3399.25] yes=23,no=24,missing=23
				23:leaf=0.066515
				24:leaf=0.0448187
			12:[f8<3327.5] yes=25,no=26,missing=25
				25:leaf=0.0423585
				26:leaf=0.0152924
		6:[f37<0.5] yes=13,no=14,missing=13
			13:[f14<0.887931] yes=27,no=28,missing=27
				27:leaf=0.0722539
				28:leaf=0.00547555
			14:[f12<4122.5] yes=29,no=30,missing=29
				29:leaf=0.0567329
				30:leaf=0.0724445
booster[27]:
0:[f42<7.60365] yes=1,no=2,missing=1
	1:[f12<1661] yes=3,no=4,missing=3
		3:[f48<0.5] yes=7,no=8,missing=7
			7:[f45<13.5] yes=15,no=16,missing=15
				15:leaf=-0.0215674
				16:leaf=0.0307418
			8:[f36<40.7787] yes=17,no=18,missing=17
				17:leaf=0.0181333
				18:leaf=-0.0306188
		4:[f44<0.5] yes=9,no=10,missing=9
			9:[f38<-73.9751] yes=19,no=20,missing=19
				19:leaf=-0.000952723
				20:leaf=-0.0404079
			10:[f0<1785] yes=21,no=22,missing=21
				21:leaf=0.00268761
				22:leaf=0.12001
	2:[f12<1650.4] yes=5,no=6,missing=5
		5:[f38<-73.9745] yes=11,no=12,missing=11
			11:[f42<8.00936] yes=23,no=24,missing=23
				23:leaf=0.00130857
				24:leaf=-0.0281904
			12:[f42<7.78135] yes=25,no=26,missing=25
				25:leaf=-0.0237654
				26:leaf=-0.0454866
		6:[f42<7.83499] yes=13,no=14,missing=13
			13:[f44<0.5] yes=27,no=28,missing=27
				27:leaf=-0.0486569
				28:leaf=-0.0207962
			14:[f44<0.5] yes=29,no=30,missing=29
				29:leaf=-0.0553623
				30:leaf=-0.0484087
booster[28]:
0:[f12<3081.67] yes=1,no=2,missing=1
	1:[f47<0.5] yes=3,no=4,missing=3
		3:[f42<7.57942] yes=7,no=8,missing=7
			7:[f26<13448] yes=15,no=16,missing=15
				15:leaf=-0.0273689
				16:leaf=0.036811
			8:[f33<0.5] yes=17,no=18,missing=17
				17:leaf=-0.0563668
				18:leaf=-0.0269944
		4:[f25<0.5] yes=9,no=10,missing=9
			9:[f48<0.5] yes=19,no=20,missing=19
				19:leaf=-0.00653353
				20:leaf=-0.0283805
			10:[f2<5977.25] yes=21,no=22,missing=21
				21:leaf=0.00540651
				22:leaf=-0.0483887
	2:[f42<8.29467] yes=5,no=6,missing=5
		5:[f8<4034.35] yes=11,no=12,missing=11
			11:[f44<0.5] yes=23,no=24,missing=23
				23:leaf=-0.0428235
				24:leaf=-0.0213117
			12:[f44<0.5] yes=25,no=26,missing=25
				25:leaf=-0.0110265
				26:leaf=0.0396366
		6:[f31<0.5] yes=13,no=14,missing=13
			13:[f12<4396.25] yes=27,no=28,missing=27
				27:leaf=-0.0457852
				28:leaf=-0.055287
			14:[f36<40.7422] yes=29,no=30,missing=29
				29:leaf=0.0214833
				30:leaf=-0.0412289
booster[29]:
0:[f12<2500.5] yes=1,no=2,missing=1
	1:[f47<1.5] yes=3,no=4,missing=3
		3:[f42<7.31155] yes=7,no=8,missing=7
			7:[f26<4462.67] yes=15,no=16,missing=15
				15:leaf=0.0790967
				16:leaf=-0.0223495
			8:[f12<927.5] yes=17,no=18,missing=17
				17:leaf=0.0144959
				18:leaf=0.0687212
		4:[f42<7.60912] yes=9,no=10,missing=9
			9:[f48<0.5] yes=19,no=20,missing=19
				19:leaf=-0.0108485
				20:leaf=0.0353142
			10:[f38<-73.9711] yes=21,no=22,missing=21
				21:leaf=0.0168091
				22:leaf=0.0381093
	2:[f32<0.5] yes=5,no=6,missing=5
		5:[f37<0.5] yes=11,no=12,missing=11
			11:[f36<40.6778] yes=23,no=24,missing=23
				23:leaf=0.0233377
				24:leaf=0.0671035
			12:[f47<1.5] yes=25,no=26,missing=25
				25:leaf=0.0729402
				26:leaf=0.04871
		6:[f42<8.16266] yes=13,no=14,missing=13
			13:[f37<1.5] yes=27,no=28,missing=27
				27:leaf=0.0360623
				28:leaf=0.0130515
			14:[f42<8.83514] yes=29,no=30,missing=29
				29:leaf=0.0533968
				30:leaf=0.0714421
booster[30]:
0:[f42<7.5504] yes=1,no=2,missing=1
	1:[f2<1906.75] yes=3,no=4,missing=3
		3:[f42<7.43868] yes=7,no=8,missing=7
			7:[f5<1810] yes=15,no=16,missing=15
				15:leaf=-0.00256196
				16:leaf=0.0477496
			8:[f44<0.5] yes=17,no=18,missing=17
				17:leaf=-0.0327361
				18:leaf=0.0144028
		4:[f47<1.5] yes=9,no=10,missing=9
			9:[f38<-73.9606] yes=19,no=20,missing=19
				19:leaf=-0.060227
				20:leaf=0.017915
			10:[f26<1059.37] yes=21,no=22,missing=21
				21:leaf=0.0811827
				22:leaf=0.0311951
	2:[f44<0.5] yes=5,no=6,missing=5
		5:[f42<7.8648] yes=11,no=12,missing=11
			11:[f2<2402.3] yes=23,no=24,missing=23
				23:leaf=-0.0451709
				24:leaf=-0.00972905
			12:[f0<2498.5] yes=25,no=26,missing=25
				25:leaf=-0.0551207
				26:leaf=-0.0467013
		6:[f42<8.00953] yes=13,no=14,missing=13
			13:[f40<3156.69] yes=27,no=28,missing=27
				27:leaf=-0.027589
				28:leaf=0.013585
			14:[f11<1.29167] yes=29,no=30,missing=29
				29:leaf=-0.0529454
				30:leaf=-0.0339477
booster[31]:
0:[f47<2.5] yes=1,no=2,missing=1
	1:[f47<0.5] yes=3,no=4,missing=3
		3:[f42<7.57942] yes=7,no=8,missing=7
			7:[f38<-73.8582] yes=15,no=16,missing=15
				15:leaf=-0.0273385
				16:leaf=0.0160896
			8:[f42<7.78634] yes=17,no=18,missing=17
				17:leaf=-0.0427797
				18:leaf=-0.0565646
		4:[f44<0.5] yes=9,no=10,missing=9
			9:[f42<7.52965] yes=19,no=20,missing=19
				19:leaf=-0.00397918
				20:leaf=-0.0353979
			10:[f11<2.5] yes=21,no=22,missing=21
				21:leaf=-0.00986667
				22:leaf=0.0858309
	2:[f42<8.10561] yes=5,no=6,missing=5
		5:[f37<0.5] yes=11,no=12,missing=11
			11:[f18<1.5] yes=23,no=24,missing=23
				23:leaf=-0.0111074
				24:leaf=0.00453517
			12:[f42<7.8336] yes=25,no=26,missing=25
				25:leaf=0.0166274
				26:leaf=0.00365766
		6:[f11<1.46429] yes=13,no=14,missing=13
			13:[f37<0.5] yes=27,no=28,missing=27
				27:leaf=-0.0438832
				28:leaf=-0.0239219
			14:[f4<3329.25] yes=29,no=30,missing=29
				29:leaf=-0.0263717
				30:leaf=-0.000635789
booster[32]:
0:[f12<1700.5] yes=1,no=2,missing=1
	1:[f38<-73.9745] yes=3,no=4,missing=3
		3:[f42<8.00437] yes=7,no=8,missing=7
			7:[f47<0.5] yes=15,no=16,missing=15
				15:leaf=0.0484969
				16:leaf=-0.0286547
			8:[f14<0.0260135] yes=17,no=18,missing=17
				17:leaf=0.0411933
				18:leaf=0.00189473
		4:[f42<7.74045] yes=9,no=10,missing=9
			9:[f48<0.5] yes=19,no=20,missing=19
				19:leaf=-0.0238178
				20:leaf=0.03615
			10:[f28<4340.83] yes=21,no=22,missing=21
				21:leaf=0.0207012
				22:leaf=0.047525
	2:[f42<7.93827] yes=5,no=6,missing=5
		5:[f46<3.5] yes=11,no=12,missing=11
			11:[f47<1.5] yes=23,no=24,missing=23
				23:leaf=0.0661539
				24:leaf=0.0355887
			12:[f12<2433.5] yes=25,no=26,missing=25
				25:leaf=0.000518574
				26:leaf=0.0258237
		6:[f32<0.5] yes=13,no=14,missing=13
			13:[f47<1.5] yes=27,no=28,missing=27
				27:leaf=0.0719477
				28:leaf=0.0556923
			14:[f36<40.7549] yes=29,no=30,missing=29
				29:leaf=0.0346729
				30:leaf=0.0522475
booster[33]:
0:[f42<7.60365] yes=1,no=2,missing=1
	1:[f12<1655] yes=3,no=4,missing=3
		3:[f12<870.25] yes=7,no=8,missing=7
			7:[f14<0.00350467] yes=15,no=16,missing=15
				15:leaf=0.00278125
				16:leaf=0.0616885
			8:[f42<7.16819] yes=17,no=18,missing=17
				17:leaf=0.0823019
				18:leaf=0.00384648
		4:[f8<1998.25] yes=9,no=10,missing=9
			9:[f44<0.5] yes=19,no=20,missing=19
				19:leaf=-0.0499789
				20:leaf=-0.0188429
			10:[f44<0.5] yes=21,no=22,missing=21
				21:leaf=-0.0150246
				22:leaf=0.02986
	2:[f12<1650.4] yes=5,no=6,missing=5
		5:[f26<1143.75] yes=11,no=12,missing=11
			11:[f36<40.762] yes=23,no=24,missing=23
				23:leaf=-0.0108789
				24:leaf=-0.0384842
			12:[f31<0.5] yes=25,no=26,missing=25
				25:leaf=-0.0375525
				26:leaf=0.0564269
		6:[f44<0.5] yes=13,no=14,missing=13
			13:[f42<7.8648] yes=27,no=28,missing=27
				27:leaf=-0.045875
				28:leaf=-0.0536121
			14:[f42<7.78135] yes=29,no=30,missing=29
				29:leaf=-0.00780342
				30:leaf=-0.0434872
booster[34]:
0:[f47<0.5] yes=1,no=2,missing=1
	1:[f42<7.76387] yes=3,no=4,missing=3
		3:[f26<13826.4] yes=7,no=8,missing=7
			7:[f38<-73.9977] yes=15,no=16,missing=15
				15:leaf=0.02788
				16:leaf=-0.0362904
			8:leaf=0.0375244
		4:[f14<0.262726] yes=9,no=10,missing=9
			9:[f36<40.8496] yes=17,no=18,missing=17
				17:leaf=-0.0563081
				18:leaf=-0.0187146
			10:[f36<40.7477] yes=19,no=20,missing=19
				19:leaf=-0.0497337
				20:leaf=-0.00149641
	2:[f44<0.5] yes=5,no=6,missing=5
		5:[f42<7.79049] yes=11,no=12,missing=11
			11:[f36<40.7659] yes=21,no=22,missing=21
				21:leaf=0.00926026
				22:leaf=-0.00877367
			12:[f11<1.46429] yes=23,no=24,missing=23
				23:leaf=-0.0276469
				24:leaf=-0.00936583
		6:[f42<8.83521] yes=13,no=14,missing=13
			13:[f14<0.105462] yes=25,no=26,missing=25
				25:leaf=-0.0025732
				26:leaf=0.0139325
			14:[f42<8.99341] yes=27,no=28,missing=27
				27:leaf=-0.0201115
				28:leaf=-0.053302
booster[35]:
0:[f12<2012.25] yes=1,no=2,missing=1
	1:[f47<0.5] yes=3,no=4,missing=3
		3:[f38<-73.9297] yes=7,no=8,missing=7
			7:[f35<0.5] yes=15,no=16,missing=15
				15:leaf=0.0694157
				16:leaf=0.0468007
			8:[f49<0.768002] yes=17,no=18,missing=17
				17:leaf=0.0190205
				18:leaf=0.0638128
		4:[f48<0.5] yes=9,no=10,missing=9
			9:[f12<1501.67] yes=19,no=20,missing=19
				19:leaf=-0.0017635
				20:leaf=0.0184177
			10:[f36<40.7828] yes=21,no=22,missing=21
				21:leaf=0.0180147
				22:leaf=0.0551369
	2:[f32<0.5] yes=5,no=6,missing=5
		5:[f47<2.5] yes=11,no=12,missing=11
			11:[f47<0.5] yes=23,no=24,missing=23
				23:leaf=0.0694178
				24:leaf=0.0587994
			12:[f12<2630.83] yes=25,no=26,missing=25
				25:leaf=0.0374305
				26:leaf=0.0532773
		6:[f12<3299.5] yes=13,no=14,missing=13
			13:[f44<0.5] yes=27,no=28,missing=27
				27:leaf=0.0356065
				28:leaf=0.013826
			14:[f10<6431.75] yes=29,no=30,missing=29
				29:leaf=0.0445669
				30:leaf=0.0675508
booster[36]:
0:[f42<7.60365] yes=1,no=2,missing=1
	1:[f12<1513.5] yes=3,no=4,missing=3
		3:[f28<12709.1] yes=7,no=8,missing=7
			7:[f36<40.824] yes=15,no=16,missing=15
				15:leaf=0.0134822
				16:leaf=-0.0225287
			8:[f28<18320.3] yes=17,no=18,missing=17
				17:leaf=0.0432183
				18:leaf=-0.0254913
		4:[f10<2597.25] yes=9,no=10,missing=9
			9:[f44<0.5] yes=19,no=20,missing=19
				19:leaf=-0.0365195
				20:leaf=0.00742719
			10:[f47<1.5] yes=21,no=22,missing=21
				21:leaf=-0.0533001
				22:leaf=0.00844137
	2:[f12<1570.88] yes=5,no=6,missing=5
		5:[f38<-73.9733] yes=11,no=12,missing=11
			11:[f42<8.00936] yes=23,no=24,missing=23
				23:leaf=0.00519977
				24:leaf=-0.0222729
			12:[f28<1268.51] yes=25,no=26,missing=25
				25:leaf=0.0439593
				26:leaf=-0.0367339
		6:[f44<0.5] yes=13,no=14,missing=13
			13:[f31<0.5] yes=27,no=28,missing=27
				27:leaf=-0.0506717
				28:leaf=-0.0231411
			14:[f42<7.83499] yes=29,no=30,missing=29
				29:leaf=-0.0147814
				30:leaf=-0.0427401
booster[37]:
0:[f12<3159.5] yes=1,no=2,missing=1
	1:[f47<2.5] yes=3,no=4,missing=3
		3:[f47<0.5] yes=7,no=8,missing=7
			7:[f42<7.57942] yes=15,no=16,missing=15
				15:leaf=-0.0163303
				16:leaf=-0.050178
			8:[f12<1717.5] yes=17,no=18,missing=17
				17:leaf=-0.00309546
				18:leaf=-0.0296367
		4:[f37<0.5] yes=9,no=10,missing=9
			9:[f12<2110] yes=19,no=20,missing=19
				19:leaf=-0.00223076
				20:leaf=-0.0199033
			10:[f42<8.5749] yes=21,no=22,missing=21
				21:leaf=0.00823744
				22:leaf=-0.012665
	2:[f42<8.24394] yes=5,no=6,missing=5
		5:[f8<4082.6] yes=11,no=12,missing=11
			11:[f37<1.5] yes=23,no=24,missing=23
				23:leaf=-0.0314353
				24:leaf=-0.000326763
			12:[f38<-73.9816] yes=25,no=26,missing=25
				25:leaf=0.0316758
				26:leaf=-0.0439159
		6:[f46<5.5] yes=13,no=14,missing=13
			13:[f35<3.5] yes=27,no=28,missing=27
				27:leaf=-0.0535397
				28:leaf=-0.0297437
			14:[f0<3199.5] yes=29,no=30,missing=29
				29:leaf=-0.0268603
				30:leaf=-0.0506932
booster[38]:
0:[f12<2415.83] yes=1,no=2,missing=1
	1:[f47<0.5] yes=3,no=4,missing=3
		3:[f42<7.50576] yes=7,no=8,missing=7
			7:[f12<1347.5] yes=15,no=16,missing=15
				15:leaf=-0.00990755
				16:leaf=0.0464569
			8:[f12<806.25] yes=17,no=18,missing=17
				17:leaf=0.00364516
				18:leaf=0.065118
		4:[f42<8.00936] yes=9,no=10,missing=9
			9:[f48<0.5] yes=19,no=20,missing=19
				19:leaf=-0.00051562
				20:leaf=0.0299428
			10:[f38<-73.9671] yes=21,no=22,missing=21
				21:leaf=0.018102
				22:leaf=0.0451626
	2:[f42<8.11597] yes=5,no=6,missing=5
		5:[f37<0.5] yes=11,no=12,missing=11
			11:[f7<3248] yes=23,no=24,missing=23
				23:leaf=0.0526753
				24:leaf=0.0272324
			12:[f44<0.5] yes=25,no=26,missing=25
				25:leaf=0.0320293
				26:leaf=0.0109711
		6:[f37<0.5] yes=13,no=14,missing=13
			13:[f14<0.887931] yes=27,no=28,missing=27
				27:leaf=0.0612451
				28:leaf=0.000257862
			14:[f38<-73.9716] yes=29,no=30,missing=29
				29:leaf=0.044478
				30:leaf=0.0612666
booster[39]:
0:[f42<7.60365] yes=1,no=2,missing=1
	1:[f12<1655] yes=3,no=4,missing=3
		3:[f12<870.25] yes=7,no=8,missing=7
			7:[f9<2247.5] yes=15,no=16,missing=15
				15:leaf=0.0842929
				16:leaf=0.0406537
			8:[f42<7.16819] yes=17,no=18,missing=17
				17:leaf=0.0683917
				18:leaf=0.0018654
		4:[f2<1905.5] yes=9,no=10,missing=9
			9:[f44<0.5] yes=19,no=20,missing=19
				19:leaf=-0.0342282
				20:leaf=0.00432334
			10:[f12<1912.5] yes=21,no=22,missing=21
				21:leaf=0.035099
				22:leaf=-0.0108937
	2:[f12<1600.5] yes=5,no=6,missing=5
		5:[f38<-73.9675] yes=11,no=12,missing=11
			11:[f42<8.00936] yes=23,no=24,missing=23
				23:leaf=0.00049295
				24:leaf=-0.0228844
			12:[f42<7.73936] yes=25,no=26,missing=25
				25:leaf=-0.0129088
				26:leaf=-0.0389841
		6:[f44<0.5] yes=13,no=14,missing=13
			13:[f12<2600.75] yes=27,no=28,missing=27
				27:leaf=-0.0459703
				28:leaf=-0.0529269
			14:[f42<7.82385] yes=29,no=30,missing=29
				29:leaf=-0.0103621
				30:leaf=-0.0409611
booster[40]:
0:[f12<3159.5] yes=1,no=2,missing=1
	1:[f37<0.5] yes=3,no=4,missing=3
		3:[f47<2.5] yes=7,no=8,missing=7
			7:[f42<7.60711] yes=15,no=16,missing=15
				15:leaf=-0.0118871
				16:leaf=-0.0422772
			8:[f12<2101.25] yes=17,no=18,missing=17
				17:leaf=-0.00203985
				18:leaf=-0.0184056
		4:[f42<8.5749] yes=9,no=10,missing=9
			9:[f36<40.7961] yes=19,no=20,missing=19
				19:leaf=0.00873568
				20:leaf=-0.0115551
			10:[f36<40.7552] yes=21,no=22,missing=21
				21:leaf=-0.00190293
				22:leaf=-0.0344026
	2:[f42<8.24394] yes=5,no=6,missing=5
		5:[f6<3823.75] yes=11,no=12,missing=11
			11:[f32<0.5] yes=23,no=24,missing=23
				23:leaf=-0.0365252
				24:leaf=-0.0153053
			12:[f44<0.5] yes=25,no=26,missing=25
				25:leaf=-0.00457899
				26:leaf=0.0666314
		6:[f46<5.5] yes=13,no=14,missing=13
			13:[f35<4.5] yes=27,no=28,missing=27
				27:leaf=-0.053127
				28:leaf=-0.0190643
			14:[f42<8.38879] yes=29,no=30,missing=29
				29:leaf=-0.0184696
				30:leaf=-0.0427271
booster[41]:
0:[f12<2012.25] yes=1,no=2,missing=1
	1:[f47<0.5] yes=3,no=4,missing=3
		3:[f42<7.31155] yes=7,no=8,missing=7
			7:[f49<0.4152] yes=15,no=16,missing=15
				15:leaf=0.0386323
				16:leaf=-0.0286003
			8:[f12<848.125] yes=17,no=18,missing=17
				17:leaf=-0.00350276
				18:leaf=0.0593027
		4:[f42<7.98071] yes=9,no=10,missing=9
			9:[f48<0.5] yes=19,no=20,missing=19
				19:leaf=-0.00843738
				20:leaf=0.0286278
			10:[f38<-73.9675] yes=21,no=22,missing=21
				21:leaf=0.010921
				22:leaf=0.0391942
	2:[f42<8.16123] yes=5,no=6,missing=5
		5:[f44<0.5] yes=11,no=12,missing=11
			11:[f45<50.5] yes=23,no=24,missing=23
				23:leaf=0.0510171
				24:leaf=0.0302063
			12:[f12<2529.5] yes=25,no=26,missing=25
				25:leaf=-0.00792089
				26:leaf=0.0196877
		6:[f38<-73.9861] yes=13,no=14,missing=13
			13:[f12<2263.75] yes=27,no=28,missing=27
				27:leaf=0.022569
				28:leaf=0.0491551
			14:[f46<16.5] yes=29,no=30,missing=29
				29:leaf=0.0584508
				30:leaf=0.00683114
booster[42]:
0:[f42<7.60365] yes=1,no=2,missing=1
	1:[f12<1513.5] yes=3,no=4,missing=3
		3:[f42<7.52186] yes=7,no=8,missing=7
			7:[f8<1682] yes=15,no=16,missing=15
				15:leaf=0.00333431
				16:leaf=0.0361961
			8:[f7<2103] yes=17,no=18,missing=17
				17:leaf=-0.0362295
				18:leaf=0.0127347
		4:[f8<1998.25] yes=9,no=10,missing=9
			9:[f12<1752.5] yes=19,no=20,missing=19
				19:leaf=-0.0253353
				20:leaf=-0.0443841
			10:[f46<3.5] yes=21,no=22,missing=21
				21:leaf=-0.0127577
				22:leaf=0.025826
	2:[f12<1684.17] yes=5,no=6,missing=5
		5:[f38<-73.9745] yes=11,no=12,missing=11
			11:[f42<8.00936] yes=23,no=24,missing=23
				23:leaf=0.00320883
				24:leaf=-0.022682
			12:[f42<7.75469] yes=25,no=26,missing=25
				25:leaf=-0.0142063
				26:leaf=-0.0382683
		6:[f42<7.83499] yes=13,no=14,missing=13
			13:[f7<2573] yes=27,no=28,missing=27
				27:leaf=-0.0421807
				28:leaf=-0.0210957
			14:[f12<3350.5] yes=29,no=30,missing=29
				29:leaf=-0.0448138
				30:leaf=-0.0538759
booster[43]:
0:[f12<3159.5] yes=1,no=2,missing=1
	1:[f32<0.5] yes=3,no=4,missing=3
		3:[f42<7.82744] yes=7,no=8,missing=7
			7:[f48<0.5] yes=15,no=16,missing=15
				15:leaf=0.00439062
				16:leaf=-0.0223807
			8:[f12<1749.25] yes=17,no=18,missing=17
				17:leaf=-0.00824006
				18:leaf=-0.027986
		4:[f36<40.7538] yes=9,no=10,missing=9
			9:[f18<4.5] yes=19,no=20,missing=19
				19:leaf=0.0117616
				20:leaf=-0.0649638
			10:[f44<0.5] yes=21,no=22,missing=21
				21:leaf=-0.0124421
				22:leaf=0.00628841
	2:[f42<8.29467] yes=5,no=6,missing=5
		5:[f8<4034.35] yes=11,no=12,missing=11
			11:[f31<0.5] yes=23,no=24,missing=23
				23:leaf=-0.0289186
				24:leaf=0.0399613
			12:[f46<4.5] yes=25,no=26,missing=25
				25:leaf=-0.0151646
				26:leaf=0.0432994
		6:[f26<443.541] yes=13,no=14,missing=13
			13:[f28<1389.06] yes=27,no=28,missing=27
				27:leaf=0.0338055
				28:leaf=-0.0302999
			14:[f12<3277.75] yes=29,no=30,missing=29
				29:leaf=-0.0151891
				30:leaf=-0.048557
booster[44]:
0:[f12<2394.5] yes=1,no=2,missing=1
	1:[f36<40.7549] yes=3,no=4,missing=3
		3:[f14<0.0264389] yes=7,no=8,missing=7
			7:[f36<40.7439] yes=15,no=16,missing=15
				15:leaf=0.0335645
				16:leaf=-0.000554091
			8:[f12<1701.5] yes=17,no=18,missing=17
				17:leaf=-0.00394889
				18:leaf=0.0124638
		4:[f48<0.5] yes=9,no=10,missing=9
			9:[f12<1352.25] yes=19,no=20,missing=19
				19:leaf=-0.00248488
				20:leaf=0.024692
			10:[f29<0.5] yes=21,no=22,missing=21
				21:leaf=0.0446905
				22:leaf=0.00283546
	2:[f44<0.5] yes=5,no=6,missing=5
		5:[f31<0.5] yes=11,no=12,missing=11
			11:[f12<3322.75] yes=23,no=24,missing=23
				23:leaf=0.042081
				24:leaf=0.0561672
			12:[f12<3792.5] yes=25,no=26,missing=25
				25:leaf=-0.0153599
				26:leaf=0.0383541
		6:[f12<3163.5] yes=13,no=14,missing=13
			13:[f18<1.5] yes=27,no=28,missing=27
				27:leaf=0.00965905
				28:leaf=0.0410911
			14:[f10<6357.5] yes=29,no=30,missing=29
				29:leaf=0.0338033
				30:leaf=0.0572234
booster[45]:
0:[f42<7.50246] yes=1,no=2,missing=1
	1:[f45<17.5] yes=3,no=4,missing=3
		3:[f20<1.46087e+06] yes=7,no=8,missing=7
			7:[f4<1878] yes=15,no=16,missing=15
				15:leaf=-0.0654471
				16:leaf=-0.0300883
			8:[f20<1.46151e+06] yes=17,no=18,missing=17
				17:leaf=0.0417969
				18:leaf=-0.0287255
		4:[f48<0.5] yes=9,no=10,missing=9
			9:[f42<7.17395] yes=19,no=20,missing=19
				19:leaf=0.0684322
				20:leaf=0.0160493
			10:[f3<1912.5] yes=21,no=22,missing=21
				21:leaf=-0.0202217
				22:leaf=0.0647225
	2:[f44<0.5] yes=5,no=6,missing=5
		5:[f42<7.8648] yes=11,no=12,missing=11
			11:[f3<2602.2] yes=23,no=24,missing=23
				23:leaf=-0.0362603
				24:leaf=0.00724416
			12:[f0<2498.5] yes=25,no=26,missing=25
				25:leaf=-0.0507476
				26:leaf=-0.0405519
		6:[f42<8.00953] yes=13,no=14,missing=13
			13:[f40<3167.61] yes=27,no=28,missing=27
				27:leaf=-0.0185437
				28:leaf=0.0235796
			14:[f11<1.41667] yes=29,no=30,missing=29
				29:leaf=-0.0478313
				30:leaf=-0.027726
booster[46]:
0:[f12<3323.5] yes=1,no=2,missing=1
	1:[f25<0.5] yes=3,no=4,missing=3
		3:[f42<7.79049] yes=7,no=8,missing=7
			7:[f48<0.5] yes=15,no=16,missing=15
				15:leaf=0.00587605
				16:leaf=-0.017033
			8:[f45<15.5] yes=17,no=18,missing=17
				17:leaf=-0.0375405
				18:leaf=-0.0121253
		4:[f3<6262.6] yes=9,no=10,missing=9
			9:[f45<77.5] yes=19,no=20,missing=19
				19:leaf=-0.00480733
				20:leaf=0.0105543
			10:[f10<9187] yes=21,no=22,missing=21
				21:leaf=0.0189925
				22:leaf=-0.0476532
	2:[f42<8.37678] yes=5,no=6,missing=5
		5:[f8<4072.35] yes=11,no=12,missing=11
			11:[f44<0.5] yes=23,no=24,missing=23
				23:leaf=-0.0398185
				24:leaf=-0.0154093
			12:[f46<4.5] yes=25,no=26,missing=25
				25:leaf=-0.0230926
				26:leaf=0.0303564
		6:[f45<297] yes=13,no=14,missing=13
			13:[f26<422.612] yes=27,no=28,missing=27
				27:leaf=-0.0354691
				28:leaf=-0.0507522
			14:leaf=-0.00546299
booster[47]:
0:[f12<3001.5] yes=1,no=2,missing=1
	1:[f47<1.5] yes=3,no=4,missing=3
		3:[f42<7.50576] yes=7,no=8,missing=7
			7:[f12<1507.5] yes=15,no=16,missing=15
				15:leaf=-0.00802809
				16:leaf=0.041003
			8:[f12<741.667] yes=17,no=18,missing=17
				17:leaf=-0.0247836
				18:leaf=0.0548635
		4:[f44<0.5] yes=9,no=10,missing=9
			9:[f42<7.84913] yes=19,no=20,missing=19
				19:leaf=0.0104371
				20:leaf=0.0302971
			10:[f42<7.78009] yes=21,no=22,missing=21
				21:leaf=-0.0205513
				22:leaf=0.00928984
	2:[f44<0.5] yes=5,no=6,missing=5
		5:[f31<0.5] yes=11,no=12,missing=11
			11:[f42<8.10228] yes=23,no=24,missing=23
				23:leaf=0.0413155
				24:leaf=0.054707
			12:[f27<144.248] yes=25,no=26,missing=25
				25:leaf=-0.0522371
				26:leaf=0.0285283
		6:[f42<8.34427] yes=13,no=14,missing=13
			13:[f7<3976] yes=27,no=28,missing=27
				27:leaf=0.032297
				28:leaf=-0.0212923
			14:[f12<3203] yes=29,no=30,missing=29
				29:leaf=0.0231529
				30:leaf=0.0548665
booster[48]:
0:[f42<7.60365] yes=1,no=2,missing=1
	1:[f12<1612.5] yes=3,no=4,missing=3
		3:[f45<15.5] yes=7,no=8,missing=7
			7:[f38<-73.9473] yes=15,no=16,missing=15
				15:leaf=0.0012163
				16:leaf=-0.0406034
			8:[f36<40.7943] yes=17,no=18,missing=17
				17:leaf=0.0309857
				18:leaf=0.00129389
		4:[f38<-73.9675] yes=9,no=10,missing=9
			9:[f46<3.5] yes=19,no=20,missing=19
				19:leaf=-0.00466259
				20:leaf=0.0498321
			10:[f44<0.5] yes=21,no=22,missing=21
				21:leaf=-0.0327285
				22:leaf=0.00642295
	2:[f12<1600.5] yes=5,no=6,missing=5
		5:[f38<-73.9653] yes=11,no=12,missing=11
			11:[f42<8.01102] yes=23,no=24,missing=23
				23:leaf=0.00738998
				24:leaf=-0.0197428
			12:[f42<7.70863] yes=25,no=26,missing=25
				25:leaf=-0.00803797
				26:leaf=-0.0365378
		6:[f44<0.5] yes=13,no=14,missing=13
			13:[f36<40.7401] yes=27,no=28,missing=27
				27:leaf=-0.0403673
				28:leaf=-0.0495628
			14:[f42<7.83479] yes=29,no=30,missing=29
				29:leaf=-0.00925645
				30:leaf=-0.0390641
booster[49]:
0:[f12<3502.5] yes=1,no=2,missing=1
	1:[f32<0.5] yes=3,no=4,missing=3
		3:[f12<2003.75] yes=7,no=8,missing=7
			7:[f48<0.5] yes=15,no=16,missing=15
				15:leaf=0.00253954
				16:leaf=-0.0221375
			8:[f37<0.5] yes=17,no=18,missing=17
				17:leaf=-0.0265481
				18:leaf=-0.00620075
		4:[f8<8112] yes=9,no=10,missing=9
			9:[f36<40.7538] yes=19,no=20,missing=19
				19:leaf=0.0103677
				20:leaf=-0.00108571
			10:[f14<0.921734] yes=21,no=22,missing=21
				21:leaf=-0.0473927
				22:leaf=0.0114412
	2:[f37<0.5] yes=5,no=6,missing=5
		5:[f12<3776.5] yes=11,no=12,missing=11
			11:[f30<0.5] yes=23,no=24,missing=23
				23:leaf=-0.0264662
				24:leaf=-0.0516181
			12:[f14<0.36747] yes=25,no=26,missing=25
				25:leaf=-0.0491772
				26:leaf=-0.014929
		6:[f26<443.69] yes=13,no=14,missing=13
			13:[f10<8480] yes=27,no=28,missing=27
				27:leaf=0.00310801
				28:leaf=-0.0479194
			14:[f29<0.5] yes=29,no=30,missing=29
				29:leaf=-0.0118874
				30:leaf=-0.0372678
booster[50]:
0:[f12<2001.25] yes=1,no=2,missing=1
	1:[f47<0.5] yes=3,no=4,missing=3
		3:[f42<7.57942] yes=7,no=8,missing=7
			7:[f12<1497.5] yes=15,no=16,missing=15
				15:leaf=0.00333586
				16:leaf=0.0495513
			8:[f12<806.25] yes=17,no=18,missing=17
				17:leaf=0.0159745
				18:leaf=0.0596126
		4:[f42<8.00437] yes=9,no=10,missing=9
			9:[f48<0.5] yes=19,no=20,missing=19
				19:leaf=-0.011354
				20:leaf=0.0256783
			10:[f4<3015.75] yes=21,no=22,missing=21
				21:leaf=0.0415212
				22:leaf=0.00959087
	2:[f42<8.16123] yes=5,no=6,missing=5
		5:[f37<0.5] yes=11,no=12,missing=11
			11:[f47<2.5] yes=23,no=24,missing=23
				23:leaf=0.0548084
				24:leaf=0.0300176
			12:[f31<0.5] yes=25,no=26,missing=25
				25:leaf=0.0115644
				26:leaf=-0.062406
		6:[f37<0.5] yes=13,no=14,missing=13
			13:[f25<0.5] yes=27,no=28,missing=27
				27:leaf=0.0561443
				28:leaf=0.0431315
			14:[f36<40.7518] yes=29,no=30,missing=29
				29:leaf=0.0320014
				30:leaf=0.0485427
booster[51]:
0:[f12<1797.25] yes=1,no=2,missing=1
	1:[f42<7.5989] yes=3,no=4,missing=3
		3:[f4<2007.5] yes=7,no=8,missing=7
			7:[f42<7.26017] yes=15,no=16,missing=15
				15:leaf=0.0343971
				16:leaf=-0.00412748
			8:[f47<0.5] yes=17,no=18,missing=17
				17:leaf=-0.0224963
				18:leaf=0.0480368
		4:[f38<-73.981] yes=9,no=10,missing=9
			9:[f10<8667.5] yes=19,no=20,missing=19
				19:leaf=-0.0124668
				20:leaf=0.0986572
			10:[f12<749.25] yes=21,no=22,missing=21
				21:leaf=0.0219556
				22:leaf=-0.0310301
	2:[f42<7.83479] yes=5,no=6,missing=5
		5:[f31<0.5] yes=11,no=12,missing=11
			11:[f37<0.5] yes=23,no=24,missing=23
				23:leaf=-0.0348541
				24:leaf=-0.0140426
			12:[f14<0.0463454] yes=25,no=26,missing=25
				25:leaf=-0.00602916
				26:leaf=0.0908536
		6:[f31<0.5] yes=13,no=14,missing=13
			13:[f12<3347.25] yes=27,no=28,missing=27
				27:leaf=-0.0434526
				28:leaf=-0.0524771
			14:[f42<8.07866] yes=29,no=30,missing=29
				29:leaf=0.0279431
				30:leaf=-0.037486
booster[52]:
0:[f47<0.5] yes=1,no=2,missing=1
	1:[f42<7.7853] yes=3,no=4,missing=3
		3:[f0<2141] yes=7,no=8,missing=7
			7:[f42<7.60711] yes=15,no=16,missing=15
				15:leaf=-0.0144232
				16:leaf=-0.0449323
			8:leaf=0.0675831
		4:[f33<0.5] yes=9,no=10,missing=9
			9:[f36<40.8454] yes=17,no=18,missing=17
				17:leaf=-0.053011
				18:leaf=-0.0142861
			10:[f45<112.5] yes=19,no=20,missing=19
				19:leaf=-0.0463952
				20:leaf=0.0116722
	2:[f42<8.86489] yes=5,no=6,missing=5
		5:[f37<0.5] yes=11,no=12,missing=11
			11:[f42<7.93827] yes=21,no=22,missing=21
				21:leaf=-0.000494281
				22:leaf=-0.0179693
			12:[f31<0.5] yes=23,no=24,missing=23
				23:leaf=0.00353673
				24:leaf=0.0489769
		6:[f10<9505] yes=13,no=14,missing=13
			13:[f0<4647.5] yes=25,no=26,missing=25
				25:leaf=-0.0383583
				26:leaf=0.0245591
			14:[f26<1910.14] yes=27,no=28,missing=27
				27:leaf=-0.0516694
				28:leaf=-0.0191009
booster[53]:
0:[f12<1700.5] yes=1,no=2,missing=1
	1:[f38<-73.9745] yes=3,no=4,missing=3
		3:[f12<1504.5] yes=7,no=8,missing=7
			7:[f14<0.0380598] yes=15,no=16,missing=15
				15:leaf=0.00152206
				16:leaf=-0.0222632
			8:[f38<-74.0058] yes=17,no=18,missing=17
				17:leaf=0.0355273
				18:leaf=0.000994737
		4:[f42<7.74045] yes=9,no=10,missing=9
			9:[f48<0.5] yes=19,no=20,missing=19
				19:leaf=-0.0254681
				20:leaf=0.0232125
			10:[f25<0.5] yes=21,no=22,missing=21
				21:leaf=0.0322315
				22:leaf=0.00921247
	2:[f42<8.05817] yes=5,no=6,missing=5
		5:[f37<0.5] yes=11,no=12,missing=11
			11:[f47<1.5] yes=23,no=24,missing=23
				23:leaf=0.0537748
				24:leaf=0.0234292
			12:[f12<2393.5] yes=25,no=26,missing=25
				25:leaf=-0.0154671
				26:leaf=0.00934971
		6:[f37<0.5] yes=13,no=14,missing=13
			13:[f25<0.5] yes=27,no=28,missing=27
				27:leaf=0.0498334
				28:leaf=0.0308535
			14:[f36<40.755] yes=29,no=30,missing=29
				29:leaf=0.0227013
				30:leaf=0.0410351
booster[54]:
0:[f42<7.74045] yes=1,no=2,missing=1
	1:[f2<2333.75] yes=3,no=4,missing=3
		3:[f42<7.41517] yes=7,no=8,missing=7
			7:[f4<1638.75] yes=15,no=16,missing=15
				15:leaf=-0.0041799
				16:leaf=0.0358398
			8:[f44<0.5] yes=17,no=18,missing=17
				17:leaf=-0.0235215
				18:leaf=0.00407109
		4:[f37<0.5] yes=9,no=10,missing=9
			9:[f2<2595.2] yes=19,no=20,missing=19
				19:leaf=0.00342398
				20:leaf=0.0523231
			10:[f10<3592.7] yes=21,no=22,missing=21
				21:leaf=0.0308889
				22:leaf=0.118013
	2:[f44<0.5] yes=5,no=6,missing=5
		5:[f11<1.83333] yes=11,no=12,missing=11
			11:[f31<0.5] yes=23,no=24,missing=23
				23:leaf=-0.0473534
				24:leaf=-0.00427128
			12:[f42<7.83794] yes=25,no=26,missing=25
				25:leaf=-0.0102942
				26:leaf=-0.0370255
		6:[f42<8.00953] yes=13,no=14,missing=13
			13:[f9<3219.5] yes=27,no=28,missing=27
				27:leaf=-0.0301199
				28:leaf=0.0111632
			14:[f11<1.41667] yes=29,no=30,missing=29
				29:leaf=-0.0449485
				30:leaf=-0.0235704
booster[55]:
0:[f47<0.5] yes=1,no=2,missing=1
	1:[f42<7.60711] yes=3,no=4,missing=3
		3:[f27<222.487] yes=7,no=8,missing=7
			7:[f46<1.5] yes=15,no=16,missing=15
				15:leaf=0.0529872
				16:leaf=-0.0180567
			8:[f27<493.903] yes=17,no=18,missing=17
				17:leaf=-0.0386779
				18:leaf=-0.00576196
		4:[f12<1499.17] yes=9,no=10,missing=9
			9:[f38<-73.9751] yes=19,no=20,missing=19
				19:leaf=0.0282506
				20:leaf=-0.0441468
			10:[f33<0.5] yes=21,no=22,missing=21
				21:leaf=-0.0516188
				22:leaf=-0.0272071
	2:[f12<3323.5] yes=5,no=6,missing=5
		5:[f38<-73.9713] yes=11,no=12,missing=11
			11:[f12<1633.17] yes=23,no=24,missing=23
				23:leaf=0.016328
				24:leaf=0.00150422
			12:[f42<8.41804] yes=25,no=26,missing=25
				25:leaf=-0.0031039
				26:leaf=-0.0320568
		6:[f42<8.38879] yes=13,no=14,missing=13
			13:[f8<4083.25] yes=27,no=28,missing=27
				27:leaf=-0.0232687
				28:leaf=0.0273008
			14:[f31<0.5] yes=29,no=30,missing=29
				29:leaf=-0.0433095
				30:leaf=-0.0021305
booster[56]:
0:[f12<2600.75] yes=1,no=2,missing=1
	1:[f47<0.5] yes=3,no=4,missing=3
		3:[f42<7.39449] yes=7,no=8,missing=7
			7:[f38<-73.8817] yes=15,no=16,missing=15
				15:leaf=0.0320067
				16:leaf=-0.045076
			8:[f12<1181.25] yes=17,no=18,missing=17
				17:leaf=0.0364831
				18:leaf=0.0581139
		4:[f36<40.7549] yes=9,no=10,missing=9
			9:[f42<7.78051] yes=19,no=20,missing=19
				19:leaf=-0.0137939
				20:leaf=0.00626695
			10:[f42<8.41294] yes=21,no=22,missing=21
				21:leaf=0.013529
				22:leaf=0.0483014
	2:[f44<0.5] yes=5,no=6,missing=5
		5:[f42<8.10847] yes=11,no=12,missing=11
			11:[f7<3352.5] yes=23,no=24,missing=23
				23:leaf=0.0407587
				24:leaf=0.00735049
			12:[f14<0.0154719] yes=25,no=26,missing=25
				25:leaf=0.0578428
				26:leaf=0.0445871
		6:[f42<8.34427] yes=13,no=14,missing=13
			13:[f1<3045] yes=27,no=28,missing=27
				27:leaf=0.056396
				28:leaf=0.0123861
			14:[f12<3198.5] yes=29,no=30,missing=29
				29:leaf=0.0308648
				30:leaf=0.0505407
booster[57]:
0:[f12<1800.5] yes=1,no=2,missing=1
	1:[f42<7.70863] yes=3,no=4,missing=3
		3:[f3<1999.1] yes=7,no=8,missing=7
			7:[f42<7.43868] yes=15,no=16,missing=15
				15:leaf=0.0117667
				16:leaf=-0.0166879
			8:[f14<0.014875] yes=17,no=18,missing=17
				17:leaf=-0.0280221
				18:leaf=0.0377249
		4:[f38<-73.9745] yes=9,no=10,missing=9
			9:[f42<8.00936] yes=19,no=20,missing=19
				19:leaf=0.0106727
				20:leaf=-0.0190563
			10:[f44<0.5] yes=21,no=22,missing=21
				21:leaf=-0.0405856
				22:leaf=-0.0215496
	2:[f42<7.8648] yes=5,no=6,missing=5
		5:[f44<0.5] yes=11,no=12,missing=11
			11:[f38<-73.9635] yes=23,no=24,missing=23
				23:leaf=-0.0262769
				24:leaf=-0.0445439
			12:[f12<2337.5] yes=25,no=26,missing=25
				25:leaf=0.00967078
				26:leaf=-0.0202049
		6:[f12<3347.25] yes=13,no=14,missing=13
			13:[f44<0.5] yes=27,no=28,missing=27
				27:leaf=-0.0463698
				28:leaf=-0.035759
			14:[f38<-74.0163] yes=29,no=30,missing=29
				29:leaf=-0.0125409
				30:leaf=-0.05117
booster[58]:
0:[f12<3502.5] yes=1,no=2,missing=1
	1:[f25<0.5] yes=3,no=4,missing=3
		3:[f42<7.82744] yes=7,no=8,missing=7
			7:[f0<2299.5] yes=15,no=16,missing=15
				15:leaf=0.000448416
				16:leaf=0.0469447
			8:[f10<3764.75] yes=17,no=18,missing=17
				17:leaf=-0.025036
				18:leaf=-0.00669945
		4:[f8<8043.75] yes=9,no=10,missing=9
			9:[f14<0.0948102] yes=19,no=20,missing=19
				19:leaf=0.000555099
				20:leaf=0.0123924
			10:[f2<5817.25] yes=21,no=22,missing=21
				21:leaf=-0.00820128
				22:leaf=-0.044162
	2:[f44<0.5] yes=5,no=6,missing=5
		5:[f31<0.5] yes=11,no=12,missing=11
			11:[f36<40.7517] yes=23,no=24,missing=23
				23:leaf=-0.0347308
				24:leaf=-0.0481306
			12:[f36<40.7652] yes=25,no=26,missing=25
				25:leaf=0.0326662
				26:leaf=-0.0366785
		6:[f42<8.34427] yes=13,no=14,missing=13
			13:[f8<4008.75] yes=27,no=28,missing=27
				27:leaf=-0.0195416
				28:leaf=0.0580808
			14:[f45<192.5] yes=29,no=30,missing=29
				29:leaf=-0.0404567
				30:leaf=-0.000198331
booster[59]:
0:[f12<2523.25] yes=1,no=2,missing=1
	1:[f47<0.5] yes=3,no=4,missing=3
		3:[f42<7.50576] yes=7,no=8,missing=7
			7:[f0<1285] yes=15,no=16,missing=15
				15:leaf=0.0524649
				16:leaf=0.014268
			8:[f12<791] yes=17,no=18,missing=17
				17:leaf=-0.00206911
				18:leaf=0.0550408
		4:[f38<-73.9743] yes=9,no=10,missing=9
			9:[f42<8.07122] yes=19,no=20,missing=19
				19:leaf=-0.0124598
				20:leaf=0.0105546
			10:[f42<7.60912] yes=21,no=22,missing=21
				21:leaf=0.000594655
				22:leaf=0.0207688
	2:[f32<0.5] yes=5,no=6,missing=5
		5:[f37<0.5] yes=11,no=12,missing=11
			11:[f42<8.23655] yes=23,no=24,missing=23
				23:leaf=0.0425179
				24:leaf=0.053578
			12:[f47<1.5] yes=25,no=26,missing=25
				25:leaf=0.055907
				26:leaf=0.023706
		6:[f42<8.18855] yes=13,no=14,missing=13
			13:[f1<4297.5] yes=27,no=28,missing=27
				27:leaf=0.0253019
				28:leaf=0.00175336
			14:[f42<8.83514] yes=29,no=30,missing=29
				29:leaf=0.0311148
				30:leaf=0.0530898
booster[60]:
0:[f12<2034.17] yes=1,no=2,missing=1
	1:[f42<8.01102] yes=3,no=4,missing=3
		3:[f38<-73.9619] yes=7,no=8,missing=7
			7:[f47<0.5] yes=15,no=16,missing=15
				15:leaf=-0.0602476
				16:leaf=0.0123022
			8:[f42<7.17964] yes=17,no=18,missing=17
				17:leaf=0.0463041
				18:leaf=-0.0159127
		4:[f36<40.7549] yes=9,no=10,missing=9
			9:[f28<5454] yes=19,no=20,missing=19
				19:leaf=-0.0102071
				20:leaf=-0.0443613
			10:[f31<0.5] yes=21,no=22,missing=21
				21:leaf=-0.0422391
				22:leaf=0.0771628
	2:[f42<7.90119] yes=5,no=6,missing=5
		5:[f44<0.5] yes=11,no=12,missing=11
			11:[f3<3140] yes=23,no=24,missing=23
				23:leaf=-0.0382918
				24:leaf=0.031001
			12:[f10<3799.75] yes=25,no=26,missing=25
				25:leaf=-0.0169479
				26:leaf=0.0288453
		6:[f42<8.11731] yes=13,no=14,missing=13
			13:[f8<3954.65] yes=27,no=28,missing=27
				27:leaf=-0.0425509
				28:leaf=0.01437
			14:[f28<324.239] yes=29,no=30,missing=29
				29:leaf=-0.00114191
				30:leaf=-0.0492617
booster[61]:
0:[f12<3200.5] yes=1,no=2,missing=1
	1:[f25<0.5] yes=3,no=4,missing=3
		3:[f47<2.5] yes=7,no=8,missing=7
			7:[f42<7.92026] yes=15,no=16,missing=15
				15:leaf=-0.0152885
				16:leaf=-0.0399156
			8:[f42<7.81944] yes=17,no=18,missing=17
				17:leaf=0.0029501
				18:leaf=-0.00839834
		4:[f14<0.0990195] yes=9,no=10,missing=9
			9:[f45<77.5] yes=19,no=20,missing=19
				19:leaf=-0.00975354
				20:leaf=0.00553341
			10:[f36<40.7966] yes=21,no=22,missing=21
				21:leaf=0.0146575
				22:leaf=-0.0210841
	2:[f37<0.5] yes=5,no=6,missing=5
		5:[f42<8.24341] yes=11,no=12,missing=11
			11:[f45<63.5] yes=23,no=24,missing=23
				23:leaf=-0.0442302
				24:leaf=-0.0138072
			12:[f32<0.5] yes=25,no=26,missing=25
				25:leaf=-0.0497375
				26:leaf=-0.0355985
		6:[f42<8.38879] yes=13,no=14,missing=13
			13:[f7<3976] yes=27,no=28,missing=27
				27:leaf=-0.0159068
				28:leaf=0.0376514
			14:[f31<0.5] yes=29,no=30,missing=29
				29:leaf=-0.0375459
				30:leaf=0.0425697
booster[62]:
0:[f12<1753.75] yes=1,no=2,missing=1
	1:[f48<0.5] yes=3,no=4,missing=3
		3:[f42<7.82104] yes=7,no=8,missing=7
			7:[f14<0.00623059] yes=15,no=16,missing=15
				15:leaf=0.0182027
				16:leaf=-0.0260092
			8:[f26<6014.45] yes=17,no=18,missing=17
				17:leaf=0.00301901
				18:leaf=0.052287
		4:[f36<40.7943] yes=9,no=10,missing=9
			9:[f32<0.5] yes=19,no=20,missing=19
				19:leaf=0.0301869
				20:leaf=-0.00917255
			10:[f13<1.5] yes=21,no=22,missing=21
				21:leaf=0.00971334
				22:leaf=0.0566698
	2:[f42<8.00687] yes=5,no=6,missing=5
		5:[f44<0.5] yes=11,no=12,missing=11
			11:[f47<1.5] yes=23,no=24,missing=23
				23:leaf=0.0491741
				24:leaf=0.0175138
			12:[f12<2394.5] yes=25,no=26,missing=25
				25:leaf=-0.0232451
				26:leaf=0.00250172
		6:[f38<-73.9874] yes=13,no=14,missing=13
			13:[f12<2264.58] yes=27,no=28,missing=27
				27:leaf=0.00522551
				28:leaf=0.0304704
			14:[f44<0.5] yes=29,no=30,missing=29
				29:leaf=0.0464233
				30:leaf=0.0296317
booster[63]:
0:[f42<7.74045] yes=1,no=2,missing=1
	1:[f12<1655] yes=3,no=4,missing=3
		3:[f28<2743.35] yes=7,no=8,missing=7
			7:[f0<1918.5] yes=15,no=16,missing=15
				15:leaf=0.0446696
				16:leaf=0.108682
			8:[f42<7.16819] yes=17,no=18,missing=17
				17:leaf=0.0503381
				18:leaf=0.00334355
		4:[f44<0.5] yes=9,no=10,missing=9
			9:[f9<2499.9] yes=19,no=20,missing=19
				19:leaf=-0.0336522
				20:leaf=-0.0107378
			10:[f3<2298] yes=21,no=22,missing=21
				21:leaf=-0.000131404
				22:leaf=0.0965874
	2:[f12<1751.17] yes=5,no=6,missing=5
		5:[f44<0.5] yes=11,no=12,missing=11
			11:[f8<3321.25] yes=23,no=24,missing=23
				23:leaf=-0.0430668
				24:leaf=-0.0237935
			12:[f26<1273] yes=25,no=26,missing=25
				25:leaf=0.00256635
				26:leaf=-0.0234619
		6:[f42<7.90119] yes=13,no=14,missing=13
			13:[f44<0.5] yes=27,no=28,missing=27
				27:leaf=-0.0388363
				28:leaf=-0.0168994
			14:[f44<0.5] yes=29,no=30,missing=29
				29:leaf=-0.0473576
				30:leaf=-0.0381412
booster[64]:
0:[f14<0.00197028] yes=1,no=2,missing=1
	1:[f42<7.59336] yes=3,no=4,missing=3
		3:[f27<539.194] yes=7,no=8,missing=7
			7:[f27<266.233] yes=15,no=16,missing=15
				15:leaf=0.0240712
				16:leaf=-0.0333347
			8:[f6<2574.75] yes=17,no=18,missing=17
				17:leaf=0.0110428
				18:leaf=0.095691
		4:[f46<0.5] yes=9,no=10,missing=9
			9:[f6<4797.5] yes=19,no=20,missing=19
				19:leaf=-0.0243532
				20:leaf=0.0741277
			10:[f44<0.5] yes=21,no=22,missing=21
				21:leaf=-0.04127
				22:leaf=-0.0186062
	2:[f42<8.86538] yes=5,no=6,missing=5
		5:[f37<0.5] yes=11,no=12,missing=11
			11:[f29<0.5] yes=23,no=24,missing=23
				23:leaf=-0.00182938
				24:leaf=-0.0206479
			12:[f42<7.97229] yes=25,no=26,missing=25
				25:leaf=0.0112895
				26:leaf=0.00164353
		6:[f9<8456] yes=13,no=14,missing=13
			13:[f6<6905] yes=27,no=28,missing=27
				27:leaf=-0.031112
				28:leaf=0.0473148
			14:[f36<40.7899] yes=29,no=30,missing=29
				29:leaf=-0.0485052
				30:leaf=-0.0166262
booster[65]:
0:[f12<1802.25] yes=1,no=2,missing=1
	1:[f36<40.7952] yes=3,no=4,missing=3
		3:[f42<7.70186] yes=7,no=8,missing=7
			7:[f41<1827.5] yes=15,no=16,missing=15
				15:leaf=0.00378004
				16:leaf=-0.0277314
			8:[f26<6014.45] yes=17,no=18,missing=17
				17:leaf=-0.000351877
				18:leaf=0.0425052
		4:[f42<7.98242] yes=9,no=10,missing=9
			9:[f48<0.5] yes=19,no=20,missing=19
				19:leaf=-0.009536
				20:leaf=0.0313882
			10:[f27<630.127] yes=21,no=22,missing=21
				21:leaf=0.0490735
				22:leaf=0.0129845
	2:[f42<8.29467] yes=5,no=6,missing=5
		5:[f37<0.5] yes=11,no=12,missing=11
			11:[f25<0.5] yes=23,no=24,missing=23
				23:leaf=0.0297986
				24:leaf=0.00901533
			12:[f42<7.8336] yes=25,no=26,missing=25
				25:leaf=-0.0083776
				26:leaf=0.0123553
		6:[f38<-73.9891] yes=13,no=14,missing=13
			13:[f12<2263.75] yes=27,no=28,missing=27
				27:leaf=0.00348225
				28:leaf=0.0362458
			14:[f46<7.5] yes=29,no=30,missing=29
				29:leaf=0.050434
				30:leaf=0.0375428
booster[66]:
0:[f12<2331.17] yes=1,no=2,missing=1
	1:[f42<7.50796] yes=3,no=4,missing=3
		3:[f45<17.5] yes=7,no=8,missing=7
			7:[f0<1697.5] yes=15,no=16,missing=15
				15:leaf=-0.0359658
				16:leaf=0.0305516
			8:[f12<1412.5] yes=17,no=18,missing=17
				17:leaf=0.0327719
				18:leaf=0.00353958
		4:[f44<0.5] yes=9,no=10,missing=9
			9:[f42<8.00386] yes=19,no=20,missing=19
				19:leaf=-0.0202589
				20:leaf=-0.0360858
			10:[f42<8.01102] yes=21,no=22,missing=21
				21:leaf=0.00599721
				22:leaf=-0.0186578
	2:[f42<8.10998] yes=5,no=6,missing=5
		5:[f44<0.5] yes=11,no=12,missing=11
			11:[f31<0.5] yes=23,no=24,missing=23
				23:leaf=-0.0424386
				24:leaf=0.0206157
			12:[f9<3490.5] yes=25,no=26,missing=25
				25:leaf=-0.0295504
				26:leaf=-0.000310422
		6:[f31<0.5] yes=13,no=14,missing=13
			13:[f43<4.5] yes=27,no=28,missing=27
				27:leaf=-0.0496556
				28:leaf=-0.0130902
			14:[f49<1.03957] yes=29,no=30,missing=29
				29:leaf=0.0202169
				30:leaf=-0.0408218
booster[67]:
0:[f47<0.5] yes=1,no=2,missing=1
	1:[f42<7.60711] yes=3,no=4,missing=3
		3:[f12<1385] yes=7,no=8,missing=7
			7:[f9<2818.5] yes=15,no=16,missing=15
				15:leaf=0.0504502
				16:leaf=-0.0364748
			8:[f38<-73.9601] yes=17,no=18,missing=17
				17:leaf=0.0184211
				18:leaf=-0.0211654
		4:[f12<1499.17] yes=9,no=10,missing=9
			9:[f38<-73.9746] yes=19,no=20,missing=19
				19:leaf=0.0321778
				20:leaf=-0.0373504
			10:[f33<0.5] yes=21,no=22,missing=21
				21:leaf=-0.04998
				22:leaf=-0.0134009
	2:[f12<3502.5] yes=5,no=6,missing=5
		5:[f25<0.5] yes=11,no=12,missing=11
			11:[f42<7.93827] yes=23,no=24,missing=23
				23:leaf=0.000659789
				24:leaf=-0.010667
			12:[f3<6260] yes=25,no=26,missing=25
				25:leaf=0.00701035
				26:leaf=-0.0423203
		6:[f42<8.36695] yes=13,no=14,missing=13
			13:[f8<4083.25] yes=27,no=28,missing=27
				27:leaf=-0.0261509
				28:leaf=0.0214393
			14:[f45<211.5] yes=29,no=30,missing=29
				29:leaf=-0.0401189
				30:leaf=-0.00272019
booster[68]:
0:[f47<1.5] yes=1,no=2,missing=1
	1:[f42<7.50576] yes=3,no=4,missing=3
		3:[f12<1497.5] yes=7,no=8,missing=7
			7:[f38<-73.9924] yes=15,no=16,missing=15
				15:leaf=0.048418
				16:leaf=-0.0197906
			8:[f5<1705] yes=17,no=18,missing=17
				17:leaf=0.0570049
				18:leaf=0.0032162
		4:[f33<0.5] yes=9,no=10,missing=9
			9:[f12<1029.17] yes=19,no=20,missing=19
				19:leaf=0.0245629
				20:leaf=0.0525716
			10:[f12<1512.25] yes=21,no=22,missing=21
				21:leaf=-0.0123722
				22:leaf=0.0347963
	2:[f12<1551.58] yes=5,no=6,missing=5
		5:[f38<-73.9669] yes=11,no=12,missing=11
			11:[f18<4.5] yes=23,no=24,missing=23
				23:leaf=-0.0163734
				24:leaf=0.0871413
			12:[f42<7.74759] yes=25,no=26,missing=25
				25:leaf=-0.0139884
				26:leaf=0.0154136
		6:[f42<8.16266] yes=13,no=14,missing=13
			13:[f44<0.5] yes=27,no=28,missing=27
				27:leaf=0.0170491
				28:leaf=-0.00180242
			14:[f12<2263.5] yes=29,no=30,missing=29
				29:leaf=0.0175582
				30:leaf=0.0363406
booster[69]:
0:[f12<1802.25] yes=1,no=2,missing=1
	1:[f42<7.5989] yes=3,no=4,missing=3
		3:[f45<18.5] yes=7,no=8,missing=7
			7:[f8<2336.05] yes=15,no=16,missing=15
				15:leaf=-0.0392677
				16:leaf=0.0187582
			8:[f48<0.5] yes=17,no=18,missing=17
				17:leaf=0.018103
				18:leaf=-0.00781967
		4:[f28<5087.01] yes=9,no=10,missing=9
			9:[f12<1252.5] yes=19,no=20,missing=19
				19:leaf=0.0212681
				20:leaf=-0.0160162
			10:[f31<0.5] yes=21,no=22,missing=21
				21:leaf=-0.0302496
				22:leaf=0.0705147
	2:[f42<7.83479] yes=5,no=6,missing=5
		5:[f44<0.5] yes=11,no=12,missing=11
			11:[f38<-73.9635] yes=23,no=24,missing=23
				23:leaf=-0.0187322
				24:leaf=-0.0429651
			12:[f10<3305] yes=25,no=26,missing=25
				25:leaf=-0.0120063
				26:leaf=0.0220551
		6:[f31<0.5] yes=13,no=14,missing=13
			13:[f44<0.5] yes=27,no=28,missing=27
				27:leaf=-0.04531
				28:leaf=-0.0347439
			14:[f42<8.07866] yes=29,no=30,missing=29
				29:leaf=0.0625328
				30:leaf=-0.023508
booster[70]:
0:[f47<0.5] yes=1,no=2,missing=1
	1:[f42<7.60711] yes=3,no=4,missing=3
		3:[f20<1.46065e+06] yes=7,no=8,missing=7
			7:leaf=-0.044211
			8:[f12<1862.5] yes=15,no=16,missing=15
				15:leaf=0.00968521
				16:leaf=-0.0379699
		4:[f12<941.667] yes=9,no=10,missing=9
			9:leaf=0.000481461
			10:[f33<0.5] yes=17,no=18,missing=17
				17:leaf=-0.0468776
				18:leaf=-0.0160565
	2:[f31<0.5] yes=5,no=6,missing=5
		5:[f14<0.0990008] yes=11,no=12,missing=11
			11:[f42<7.84444] yes=19,no=20,missing=19
				19:leaf=0.00369903
				20:leaf=-0.00934261
			12:[f36<40.7967] yes=21,no=22,missing=21
				21:leaf=0.00734585
				22:leaf=-0.0138314
		6:[f0<1782.5] yes=13,no=14,missing=13
			13:[f26<1389.41] yes=23,no=24,missing=23
				23:leaf=-0.0192729
				24:leaf=0.0377765
			14:[f2<4775] yes=25,no=26,missing=25
				25:leaf=0.0558314
				26:leaf=-0.0177477
booster[71]:
0:[f47<1.5] yes=1,no=2,missing=1
	1:[f42<7.31155] yes=3,no=4,missing=3
		3:[f49<0.519798] yes=7,no=8,missing=7
			7:[f14<0.0404418] yes=15,no=16,missing=15
				15:leaf=-0.0128484
				16:leaf=0.0433296
			8:[f49<0.677611] yes=17,no=18,missing=17
				17:leaf=-0.0660501
				18:leaf=-0.0141845
		4:[f12<848.125] yes=9,no=10,missing=9
			9:[f49<0.494265] yes=19,no=20,missing=19
				19:leaf=-0.0631625
				20:leaf=0.00889133
			10:[f35<0.5] yes=21,no=22,missing=21
				21:leaf=0.0503671
				22:leaf=0.0294948
	2:[f12<1504.83] yes=5,no=6,missing=5
		5:[f38<-73.9594] yes=11,no=12,missing=11
			11:[f18<4.5] yes=23,no=24,missing=23
				23:leaf=-0.0179283
				24:leaf=0.0728574
			12:[f42<7.94538] yes=25,no=26,missing=25
				25:leaf=-0.00267444
				26:leaf=0.0221111
		6:[f42<7.8336] yes=13,no=14,missing=13
			13:[f38<-73.9742] yes=27,no=28,missing=27
				27:leaf=-0.0110074
				28:leaf=0.0105979
			14:[f44<0.5] yes=29,no=30,missing=29
				29:leaf=0.0257405
				30:leaf=0.0103821
booster[72]:
0:[f12<2007.58] yes=1,no=2,missing=1
	1:[f42<7.98071] yes=3,no=4,missing=3
		3:[f48<0.5] yes=7,no=8,missing=7
			7:[f0<2497] yes=15,no=16,missing=15
				15:leaf=-0.000677959
				16:leaf=0.0418849
			8:[f30<0.5] yes=17,no=18,missing=17
				17:leaf=-0.0242408
				18:leaf=0.0476685
		4:[f36<40.7547] yes=9,no=10,missing=9
			9:[f36<40.7074] yes=19,no=20,missing=19
				19:leaf=-0.0421951
				20:leaf=-0.00636396
			10:[f44<0.5] yes=21,no=22,missing=21
				21:leaf=-0.0467849
				22:leaf=-0.0292661
	2:[f42<8.10938] yes=5,no=6,missing=5
		5:[f44<0.5] yes=11,no=12,missing=11
			11:[f8<4042.5] yes=23,no=24,missing=23
				23:leaf=-0.038094
				24:leaf=0.0144601
			12:[f9<3727.5] yes=25,no=26,missing=25
				25:leaf=-0.0201011
				26:leaf=0.0141197
		6:[f49<0.485357] yes=13,no=14,missing=13
			13:[f27<282.791] yes=27,no=28,missing=27
				27:leaf=0.0384476
				28:leaf=-0.037602
			14:[f12<2051.75] yes=29,no=30,missing=29
				29:leaf=-0.0253209
				30:leaf=-0.0470349
booster[73]:
0:[f47<0.5] yes=1,no=2,missing=1
	1:[f42<7.7853] yes=3,no=4,missing=3
		3:[f2<2201.25] yes=7,no=8,missing=7
			7:[f12<1862.5] yes=15,no=16,missing=15
				15:leaf=-0.00190826
				16:leaf=-0.0496686
			8:[f14<0.00431034] yes=17,no=18,missing=17
				17:leaf=0.000390614
				18:leaf=0.0830833
		4:[f33<0.5] yes=9,no=10,missing=9
			9:[f28<1568.73] yes=19,no=20,missing=19
				19:leaf=-0.0292757
				20:leaf=-0.0502826
			10:[f10<4588.3] yes=21,no=22,missing=21
				21:leaf=-0.0392359
				22:leaf=0.0294016
	2:[f12<3604] yes=5,no=6,missing=5
		5:[f37<0.5] yes=11,no=12,missing=11
			11:[f49<1.36771] yes=23,no=24,missing=23
				23:leaf=-0.00103837
				24:leaf=-0.0174434
			12:[f8<8112] yes=25,no=26,missing=25
				25:leaf=0.00630518
				26:leaf=-0.0332608
		6:[f26<443.69] yes=13,no=14,missing=13
			13:[f10<4360] yes=27,no=28,missing=27
				27:leaf=-0.0417833
				28:leaf=0.0225904
			14:[f31<0.5] yes=29,no=30,missing=29
				29:leaf=-0.0308471
				30:leaf=0.0311975
booster[74]:
0:[f47<1.5] yes=1,no=2,missing=1
	1:[f42<7.52564] yes=3,no=4,missing=3
		3:[f12<1497.5] yes=7,no=8,missing=7
			7:[f10<3213.25] yes=15,no=16,missing=15
				15:leaf=-0.0262887
				16:leaf=0.0596215
			8:[f35<0.5] yes=17,no=18,missing=17
				17:leaf=0.038874
				18:leaf=-0.015927
		4:[f12<1209.58] yes=9,no=10,missing=9
			9:[f28<3987.19] yes=19,no=20,missing=19
				19:leaf=-0.0265688
				20:leaf=0.0287529
			10:[f14<0.514395] yes=21,no=22,missing=21
				21:leaf=0.0485685
				22:leaf=-0.000258558
	2:[f12<1512.25] yes=5,no=6,missing=5
		5:[f28<4511.05] yes=11,no=12,missing=11
			11:[f44<0.5] yes=23,no=24,missing=23
				23:leaf=-0.0063149
				24:leaf=-0.032241
			12:[f42<7.84874] yes=25,no=26,missing=25
				25:leaf=-0.00920296
				26:leaf=0.0172893
		6:[f42<8.16266] yes=13,no=14,missing=13
			13:[f44<0.5] yes=27,no=28,missing=27
				27:leaf=0.0143754
				28:leaf=-0.00269144
			14:[f36<40.7519] yes=29,no=30,missing=29
				29:leaf=0.0136374
				30:leaf=0.0365192
booster[75]:
0:[f42<7.73936] yes=1,no=2,missing=1
	1:[f2<2329.25] yes=3,no=4,missing=3
		3:[f42<7.41155] yes=7,no=8,missing=7
			7:[f6<1828.25] yes=15,no=16,missing=15
				15:leaf=0.00404323
				16:leaf=0.0402193
			8:[f8<1994.25] yes=17,no=18,missing=17
				17:leaf=-0.035159
				18:leaf=-0.00726031
		4:[f26<933.833] yes=9,no=10,missing=9
			9:[f26<773.578] yes=19,no=20,missing=19
				19:leaf=0.0525084
				20:leaf=0.12952
			10:[f20<1.46287e+06] yes=21,no=22,missing=21
				21:leaf=-0.00866431
				22:leaf=0.0526756
	2:[f44<0.5] yes=5,no=6,missing=5
		5:[f0<2187] yes=11,no=12,missing=11
			11:[f42<7.93469] yes=23,no=24,missing=23
				23:leaf=-0.0357152
				24:leaf=-0.0475241
			12:[f42<7.86557] yes=25,no=26,missing=25
				25:leaf=0.000637871
				26:leaf=-0.03249
		6:[f27<401.528] yes=13,no=14,missing=13
			13:[f28<5071.9] yes=27,no=28,missing=27
				27:leaf=-0.000190632
				28:leaf=-0.0222286
			14:[f42<8.45479] yes=29,no=30,missing=29
				29:leaf=-0.0205172
				30:leaf=-0.0457395
booster[76]:
0:[f25<0.5] yes=1,no=2,missing=1
	1:[f42<8.08626] yes=3,no=4,missing=3
		3:[f48<0.5] yes=7,no=8,missing=7
			7:[f7<3278.2] yes=15,no=16,missing=15
				15:leaf=-7.60239e-06
				16:leaf=0.0206213
			8:[f37<1.5] yes=17,no=18,missing=17
				17:leaf=-0.016235
				18:leaf=0.057793
		4:[f37<0.5] yes=9,no=10,missing=9
			9:[f13<1.5] yes=19,no=20,missing=19
				19:leaf=-0.0130399
				20:leaf=-0.0346917
			10:[f8<3993.5] yes=21,no=22,missing=21
				21:leaf=-0.0173127
				22:leaf=0.00900009
	2:[f42<8.98757] yes=5,no=6,missing=5
		5:[f28<5417.2] yes=11,no=12,missing=11
			11:[f44<0.5] yes=23,no=24,missing=23
				23:leaf=0.000859192
				24:leaf=0.0132724
			12:[f42<7.84581] yes=25,no=26,missing=25
				25:leaf=0.0120436
				26:leaf=-0.00972604
		6:[f9<7997] yes=13,no=14,missing=13
			13:[f12<3232.5] yes=27,no=28,missing=27
				27:leaf=0.0311802
				28:leaf=-0.0388996
			14:[f46<15.5] yes=29,no=30,missing=29
				29:leaf=-0.0497373
				30:leaf=-0.0120547
booster[77]:
0:[f47<0.5] yes=1,no=2,missing=1
	1:[f42<7.57942] yes=3,no=4,missing=3
		3:[f12<1497.5] yes=7,no=8,missing=7
			7:[f38<-73.9581] yes=15,no=16,missing=15
				15:leaf=0.0710951
				16:leaf=-0.0135366
			8:[f38<-73.959] yes=17,no=18,missing=17
				17:leaf=-0.0054282
				18:leaf=0.0473392
		4:[f12<806.25] yes=9,no=10,missing=9
			9:leaf=3.57584e-05
			10:[f33<0.5] yes=19,no=20,missing=19
				19:leaf=0.0521571
				20:leaf=0.0266898
	2:[f31<0.5] yes=5,no=6,missing=5
		5:[f12<2016.25] yes=11,no=12,missing=11
			11:[f36<40.7547] yes=21,no=22,missing=21
				21:leaf=-0.00348872
				22:leaf=0.00941554
			12:[f37<0.5] yes=23,no=24,missing=23
				23:leaf=0.0267084
				24:leaf=0.00937413
		6:[f12<3795] yes=13,no=14,missing=13
			13:[f6<6122.25] yes=25,no=26,missing=25
				25:leaf=-0.0606495
				26:leaf=0.0159774
			14:[f39<0.5] yes=27,no=28,missing=27
				27:leaf=0.0362571
				28:leaf=-0.0422397
booster[78]:
0:[f12<2331.17] yes=1,no=2,missing=1
	1:[f42<8.00936] yes=3,no=4,missing=3
		3:[f2<2902.5] yes=7,no=8,missing=7
			7:[f42<7.43868] yes=15,no=16,missing=15
				15:leaf=0.0120358
				16:leaf=-0.0114044
			8:[f20<1.46299e+06] yes=17,no=18,missing=17
				17:leaf=0.0186635
				18:leaf=0.0549448
		4:[f36<40.7549] yes=9,no=10,missing=9
			9:[f36<40.7139] yes=19,no=20,missing=19
				19:leaf=-0.0390033
				20:leaf=-0.00873435
			10:[f12<1335.42] yes=21,no=22,missing=21
				21:leaf=-0.0163036
				22:leaf=-0.0424193
	2:[f31<0.5] yes=5,no=6,missing=5
		5:[f42<8.11597] yes=11,no=12,missing=11
			11:[f37<0.5] yes=23,no=24,missing=23
				23:leaf=-0.0409551
				24:leaf=-0.0226126
			12:[f27<193.658] yes=25,no=26,missing=25
				25:leaf=-0.0418207
				26:leaf=-0.0495134
		6:[f12<3213.75] yes=13,no=14,missing=13
			13:[f1<3838.5] yes=27,no=28,missing=27
				27:leaf=-0.0229291
				28:leaf=0.091005
			14:[f1<5200] yes=29,no=30,missing=29
				29:leaf=0.0028318
				30:leaf=-0.0481751
booster[79]:
0:[f47<2.5] yes=1,no=2,missing=1
	1:[f12<1507.5] yes=3,no=4,missing=3
		3:[f37<0.5] yes=7,no=8,missing=7
			7:[f42<7.79353] yes=15,no=16,missing=15
				15:leaf=0.00680876
				16:leaf=-0.0222455
			8:[f4<2960] yes=17,no=18,missing=17
				17:leaf=0.085692
				18:leaf=0.0106527
		4:[f42<7.92026] yes=9,no=10,missing=9
			9:[f30<0.5] yes=19,no=20,missing=19
				19:leaf=-0.0197905
				20:leaf=0.0258298
			10:[f14<0.032573] yes=21,no=22,missing=21
				21:leaf=-0.049316
				22:leaf=-0.0269528
	2:[f12<3604] yes=5,no=6,missing=5
		5:[f31<0.5] yes=11,no=12,missing=11
			11:[f38<-73.9718] yes=23,no=24,missing=23
				23:leaf=0.00631221
				24:leaf=-0.00208357
			12:[f12<2887.5] yes=25,no=26,missing=25
				25:leaf=0.0275712
				26:leaf=0.0841983
		6:[f37<0.5] yes=13,no=14,missing=13
			13:[f12<3776.5] yes=27,no=28,missing=27
				27:leaf=-0.0105137
				28:leaf=-0.0414601
			14:[f27<765.864] yes=29,no=30,missing=29
				29:leaf=-0.00667985
				30:leaf=-0.0443659
booster[80]:
0:[f47<0.5] yes=1,no=2,missing=1
	1:[f42<7.50576] yes=3,no=4,missing=3
		3:[f1<4247.5] yes=7,no=8,missing=7
			7:[f1<3450] yes=15,no=16,missing=15
				15:leaf=0.0150071
				16:leaf=-0.0535651
			8:leaf=0.0597651
		4:[f33<0.5] yes=9,no=10,missing=9
			9:[f42<7.7853] yes=17,no=18,missing=17
				17:leaf=0.0390424
				18:leaf=0.0522369
			10:[f13<0.5] yes=19,no=20,missing=19
				19:leaf=-0.00161067
				20:leaf=0.0548879
	2:[f42<8.00653] yes=5,no=6,missing=5
		5:[f8<3278.75] yes=11,no=12,missing=11
			11:[f42<7.60912] yes=21,no=22,missing=21
				21:leaf=-0.00669379
				22:leaf=0.0110649
			12:[f26<4093.38] yes=23,no=24,missing=23
				23:leaf=-0.0192444
				24:leaf=0.0193922
		6:[f36<40.7549] yes=13,no=14,missing=13
			13:[f28<5584.15] yes=25,no=26,missing=25
				25:leaf=0.00159377
				26:leaf=0.0298714
			14:[f42<8.41239] yes=27,no=28,missing=27
				27:leaf=0.0183734
				28:leaf=0.0374932
booster[81]:
0:[f12<2123.38] yes=1,no=2,missing=1
	1:[f42<8.00936] yes=3,no=4,missing=3
		3:[f38<-73.9655] yes=7,no=8,missing=7
			7:[f37<1.5] yes=15,no=16,missing=15
				15:leaf=0.00927791
				16:leaf=0.0695792
			8:[f42<7.50796] yes=17,no=18,missing=17
				17:leaf=0.00353471
				18:leaf=-0.0176644
		4:[f36<40.7549] yes=9,no=10,missing=9
			9:[f28<5452.84] yes=19,no=20,missing=19
				19:leaf=-0.00373446
				20:leaf=-0.0431877
			10:[f31<0.5] yes=21,no=22,missing=21
				21:leaf=-0.0371301
				22:leaf=0.0696537
	2:[f42<8.11597] yes=5,no=6,missing=5
		5:[f31<0.5] yes=11,no=12,missing=11
			11:[f37<0.5] yes=23,no=24,missing=23
				23:leaf=-0.0379664
				24:leaf=-0.0187349
			12:[f38<-73.9617] yes=25,no=26,missing=25
				25:leaf=0.0624859
				26:leaf=-0.0340709
		6:[f31<0.5] yes=13,no=14,missing=13
			13:[f27<160.596] yes=27,no=28,missing=27
				27:leaf=-0.0358195
				28:leaf=-0.0474753
			14:[f46<7.5] yes=29,no=30,missing=29
				29:leaf=-0.040575
				30:leaf=0.0230436
booster[82]:
0:[f47<2.5] yes=1,no=2,missing=1
	1:[f12<2004.5] yes=3,no=4,missing=3
		3:[f38<-73.9843] yes=7,no=8,missing=7
			7:[f33<0.5] yes=15,no=16,missing=15
				15:leaf=0.00811758
				16:leaf=0.0572749
			8:[f42<7.95944] yes=17,no=18,missing=17
				17:leaf=-0.00188008
				18:leaf=-0.0343349
		4:[f47<0.5] yes=9,no=10,missing=9
			9:[f33<0.5] yes=19,no=20,missing=19
				19:leaf=-0.0477971
				20:leaf=-0.00906818
			10:[f13<1.5] yes=21,no=22,missing=21
				21:leaf=-0.0105575
				22:leaf=-0.0319129
	2:[f42<8.98757] yes=5,no=6,missing=5
		5:[f37<0.5] yes=11,no=12,missing=11
			11:[f13<1.5] yes=23,no=24,missing=23
				23:leaf=0.00273189
				24:leaf=-0.0111834
			12:[f31<0.5] yes=25,no=26,missing=25
				25:leaf=0.00483841
				26:leaf=0.0424983
		6:[f8<5625.5] yes=13,no=14,missing=13
			13:leaf=0.00782412
			14:[f36<40.7897] yes=27,no=28,missing=27
				27:leaf=-0.0446254
				28:leaf=-0.0123828
booster[83]:
0:[f12<1511.25] yes=1,no=2,missing=1
	1:[f28<4377.42] yes=3,no=4,missing=3
		3:[f44<0.5] yes=7,no=8,missing=7
			7:[f12<1179.17] yes=15,no=16,missing=15
				15:leaf=-0.0534094
				16:leaf=0.000513362
			8:[f42<8.3905] yes=17,no=18,missing=17
				17:leaf=-0.0488324
				18:leaf=-0.00144183
		4:[f42<7.71891] yes=9,no=10,missing=9
			9:[f48<0.5] yes=19,no=20,missing=19
				19:leaf=-0.0275063
				20:leaf=0.0114314
			10:[f38<-73.9583] yes=21,no=22,missing=21
				21:leaf=0.000261328
				22:leaf=0.0234052
	2:[f44<0.5] yes=5,no=6,missing=5
		5:[f42<7.74608] yes=11,no=12,missing=11
			11:[f38<-73.9639] yes=23,no=24,missing=23
				23:leaf=-0.0125248
				24:leaf=0.0197753
			12:[f47<2.5] yes=25,no=26,missing=25
				25:leaf=0.0467023
				26:leaf=0.0211959
		6:[f42<8.35149] yes=13,no=14,missing=13
			13:[f8<4026] yes=27,no=28,missing=27
				27:leaf=0.000884178
				28:leaf=-0.0318355
			14:[f36<40.7549] yes=29,no=30,missing=29
				29:leaf=0.00696035
				30:leaf=0.0383209
booster[84]:
0:[f12<2331.17] yes=1,no=2,missing=1
	1:[f42<7.49526] yes=3,no=4,missing=3
		3:[f6<1843.25] yes=7,no=8,missing=7
			7:[f12<1312.5] yes=15,no=16,missing=15
				15:leaf=0.0475512
				16:leaf=-0.0122915
			8:[f42<7.43868] yes=17,no=18,missing=17
				17:leaf=0.0355747
				18:leaf=0.00950022
		4:[f44<0.5] yes=9,no=10,missing=9
			9:[f12<1298.92] yes=19,no=20,missing=19
				19:leaf=-0.00906544
				20:leaf=-0.0278737
			10:[f42<8.01102] yes=21,no=22,missing=21
				21:leaf=0.0105809
				22:leaf=-0.011789
	2:[f42<8.11597] yes=5,no=6,missing=5
		5:[f44<0.5] yes=11,no=12,missing=11
			11:[f31<0.5] yes=23,no=24,missing=23
				23:leaf=-0.0369255
				24:leaf=0.0219586
			12:[f8<3397.75] yes=25,no=26,missing=25
				25:leaf=-0.0235098
				26:leaf=0.0047154
		6:[f28<497.376] yes=13,no=14,missing=13
			13:leaf=0.00507729
			14:[f43<3.5] yes=27,no=28,missing=27
				27:leaf=-0.0468436
				28:leaf=-0.0190864
booster[85]:
0:[f47<0.5] yes=1,no=2,missing=1
	1:[f12<1998.67] yes=3,no=4,missing=3
		3:[f2<2452.5] yes=7,no=8,missing=7
			7:[f20<1.46065e+06] yes=15,no=16,missing=15
				15:leaf=-0.0517517
				16:leaf=0.00274846
			8:[f2<3597.5] yes=17,no=18,missing=17
				17:leaf=-0.0441894
				18:leaf=0.00604815
		4:[f44<0.5] yes=9,no=10,missing=9
			9:[f28<1568.73] yes=19,no=20,missing=19
				19:leaf=-0.0388669
				20:leaf=-0.0509459
			10:[f49<1.02469] yes=21,no=22,missing=21
				21:leaf=0.035647
				22:leaf=-0.045668
	2:[f37<0.5] yes=5,no=6,missing=5
		5:[f12<2665.83] yes=11,no=12,missing=11
			11:[f13<1.5] yes=23,no=24,missing=23
				23:leaf=0.00414506
				24:leaf=-0.00739257
			12:[f32<0.5] yes=25,no=26,missing=25
				25:leaf=-0.0276004
				26:leaf=-0.000460396
		6:[f40<7541.43] yes=13,no=14,missing=13
			13:[f31<0.5] yes=27,no=28,missing=27
				27:leaf=0.00576262
				28:leaf=0.0389898
			14:[f27<302.371] yes=29,no=30,missing=29
				29:leaf=-0.0489858
				30:leaf=-0.0210004
booster[86]:
0:[f47<0.5] yes=1,no=2,missing=1
	1:[f42<7.57942] yes=3,no=4,missing=3
		3:[f12<1497.5] yes=7,no=8,missing=7
			7:[f38<-73.9573] yes=15,no=16,missing=15
				15:leaf=0.0595337
				16:leaf=-0.0175547
			8:[f10<2292.75] yes=17,no=18,missing=17
				17:leaf=0.0470173
				18:leaf=0.0133149
		4:[f35<3.5] yes=9,no=10,missing=9
			9:[f28<2688.71] yes=19,no=20,missing=19
				19:leaf=0.041683
				20:leaf=0.0523856
			10:leaf=0.000475879
	2:[f12<2404] yes=5,no=6,missing=5
		5:[f36<40.7547] yes=11,no=12,missing=11
			11:[f28<5573.27] yes=21,no=22,missing=21
				21:leaf=-0.00873185
				22:leaf=0.00599632
			12:[f42<8.42978] yes=23,no=24,missing=23
				23:leaf=0.0064518
				24:leaf=0.0343505
		6:[f37<0.5] yes=13,no=14,missing=13
			13:[f32<0.5] yes=25,no=26,missing=25
				25:leaf=0.0329272
				26:leaf=0.0132106
			14:[f42<8.38879] yes=27,no=28,missing=27
				27:leaf=0.004143
				28:leaf=0.0276909
booster[87]:
0:[f12<2331.17] yes=1,no=2,missing=1
	1:[f38<-73.9827] yes=3,no=4,missing=3
		3:[f36<40.7543] yes=7,no=8,missing=7
			7:[f36<40.7075] yes=15,no=16,missing=15
				15:leaf=-0.0131991
				16:leaf=0.0139729
			8:[f12<1120.83] yes=17,no=18,missing=17
				17:leaf=0.0843651
				18:leaf=-0.0231415
		4:[f49<0.860819] yes=9,no=10,missing=9
			9:[f44<0.5] yes=19,no=20,missing=19
				19:leaf=-0.0135224
				20:leaf=0.00402559
			10:[f12<1501.67] yes=21,no=22,missing=21
				21:leaf=-0.0154814
				22:leaf=-0.0312577
	2:[f12<3325.5] yes=5,no=6,missing=5
		5:[f14<0.0595425] yes=11,no=12,missing=11
			11:[f9<3494.5] yes=23,no=24,missing=23
				23:leaf=-0.0419675
				24:leaf=-0.0265337
			12:[f38<-73.9774] yes=25,no=26,missing=25
				25:leaf=-0.0108736
				26:leaf=-0.0331033
		6:[f46<16.5] yes=13,no=14,missing=13
			13:[f38<-74.0148] yes=27,no=28,missing=27
				27:leaf=-0.0122633
				28:leaf=-0.0485318
			14:leaf=0.00194585
booster[88]:
0:[f44<0.5] yes=1,no=2,missing=1
	1:[f12<3448.75] yes=3,no=4,missing=3
		3:[f38<-73.9778] yes=7,no=8,missing=7
			7:[f49<0.460359] yes=15,no=16,missing=15
				15:leaf=0.0248211
				16:leaf=0.00230952
			8:[f42<8.03025] yes=17,no=18,missing=17
				17:leaf=-0.00302771
				18:leaf=-0.0209471
		4:[f31<0.5] yes=9,no=10,missing=9
			9:[f38<-73.9816] yes=19,no=20,missing=19
				19:leaf=-0.0233677
				20:leaf=-0.0421507
			10:[f42<8.24078] yes=21,no=22,missing=21
				21:leaf=0.0712082
				22:leaf=-0.0052213
	2:[f2<5880.25] yes=5,no=6,missing=5
		5:[f14<0.105462] yes=11,no=12,missing=11
			11:[f49<0.648973] yes=23,no=24,missing=23
				23:leaf=0.0137631
				24:leaf=-0.00107187
			12:[f2<4514.5] yes=25,no=26,missing=25
				25:leaf=0.0101836
				26:leaf=0.0343408
		6:[f27<637.796] yes=13,no=14,missing=13
			13:[f39<0.5] yes=27,no=28,missing=27
				27:leaf=-0.0574272
				28:leaf=-0.0371194
			14:[f5<8998.5] yes=29,no=30,missing=29
				29:leaf=0.0240085
				30:leaf=-0.0472462
booster[89]:
0:[f12<1512.25] yes=1,no=2,missing=1
	1:[f36<40.7853] yes=3,no=4,missing=3
		3:[f33<0.5] yes=7,no=8,missing=7
			7:[f46<7.5] yes=15,no=16,missing=15
				15:leaf=0.00166563
				16:leaf=-0.0275961
			8:[f36<40.7086] yes=17,no=18,missing=17
				17:leaf=-0.0053324
				18:leaf=-0.0264326
		4:[f13<1.5] yes=9,no=10,missing=9
			9:[f2<2752.5] yes=19,no=20,missing=19
				19:leaf=-0.0129742
				20:leaf=0.0202547
			10:[f33<0.5] yes=21,no=22,missing=21
				21:leaf=0.00895017
				22:leaf=0.0414448
	2:[f47<0.5] yes=5,no=6,missing=5
		5:[f4<2653.75] yes=11,no=12,missing=11
			11:[f9<3435] yes=23,no=24,missing=23
				23:leaf=0.0478954
				24:leaf=0.00947396
			12:[f27<92.4601] yes=25,no=26,missing=25
				25:leaf=0.0164022
				26:leaf=0.0531152
		6:[f12<3502.5] yes=13,no=14,missing=13
			13:[f38<-73.9776] yes=27,no=28,missing=27
				27:leaf=0.00275178
				28:leaf=0.0143629
			14:[f26<443.541] yes=29,no=30,missing=29
				29:leaf=0.0100464
				30:leaf=0.0331254
booster[90]:
0:[f42<7.60365] yes=1,no=2,missing=1
	1:[f47<0.5] yes=3,no=4,missing=3
		3:[f12<1497.5] yes=7,no=8,missing=7
			7:[f38<-73.9299] yes=15,no=16,missing=15
				15:leaf=-0.0398572
				16:leaf=0.00232543
			8:[f20<1.46138e+06] yes=17,no=18,missing=17
				17:leaf=-0.0348567
				18:leaf=-0.056526
		4:[f38<-73.9675] yes=9,no=10,missing=9
			9:[f0<1219] yes=19,no=20,missing=19
				19:leaf=-0.0326743
				20:leaf=0.0323359
			10:[f12<848.75] yes=21,no=22,missing=21
				21:leaf=0.0486161
				22:leaf=-0.00263285
	2:[f44<0.5] yes=5,no=6,missing=5
		5:[f12<1354.5] yes=11,no=12,missing=11
			11:[f38<-73.9652] yes=23,no=24,missing=23
				23:leaf=0.0020364
				24:leaf=-0.0255836
			12:[f38<-73.9854] yes=25,no=26,missing=25
				25:leaf=-0.0217791
				26:leaf=-0.0394884
		6:[f12<2726.25] yes=13,no=14,missing=13
			13:[f26<1451.35] yes=27,no=28,missing=27
				27:leaf=0.000950914
				28:leaf=-0.0202324
			14:[f12<3468.5] yes=29,no=30,missing=29
				29:leaf=-0.0240143
				30:leaf=-0.0457843
booster[91]:
0:[f47<2.5] yes=1,no=2,missing=1
	1:[f45<18.5] yes=3,no=4,missing=3
		3:[f4<2526.75] yes=7,no=8,missing=7
			7:[f5<2517.4] yes=15,no=16,missing=15
				15:leaf=-0.0273189
				16:leaf=0.0258221
			8:[f9<7546] yes=17,no=18,missing=17
				17:leaf=-0.0485311
				18:leaf=-0.0106729
		4:[f48<0.5] yes=9,no=10,missing=9
			9:[f38<-73.9861] yes=19,no=20,missing=19
				19:leaf=0.0184879
				20:leaf=-0.008592
			10:[f35<0.5] yes=21,no=22,missing=21
				21:leaf=-0.0387482
				22:leaf=-0.0156524
	2:[f18<4.5] yes=5,no=6,missing=5
		5:[f44<0.5] yes=11,no=12,missing=11
			11:[f45<117.5] yes=23,no=24,missing=23
				23:leaf=-0.00384281
				24:leaf=0.00864109
			12:[f28<4198.31] yes=25,no=26,missing=25
				25:leaf=0.00970367
				26:leaf=-0.000527838
		6:[f0<6625] yes=13,no=14,missing=13
			13:leaf=-0.0597934
			14:leaf=-0.0290553
booster[92]:
0:[f47<0.5] yes=1,no=2,missing=1
	1:[f35<0.5] yes=3,no=4,missing=3
		3:[f26<6171.13] yes=7,no=8,missing=7
			7:[f28<2688.71] yes=15,no=16,missing=15
				15:leaf=0.0400834
				16:leaf=0.0523917
			8:[f20<1.46095e+06] yes=17,no=18,missing=17
				17:leaf=0.0537685
				18:leaf=0.0161937
		4:[f2<1795.7] yes=9,no=10,missing=9
			9:[f3<1622.5] yes=19,no=20,missing=19
				19:leaf=0.0285355
				20:leaf=-0.0605893
			10:[f11<1.75] yes=21,no=22,missing=21
				21:leaf=0.040971
				22:leaf=0.0155812
	2:[f31<0.5] yes=5,no=6,missing=5
		5:[f44<0.5] yes=11,no=12,missing=11
			11:[f36<40.7521] yes=23,no=24,missing=23
				23:leaf=0.00460516
				24:leaf=0.016008
			12:[f28<5079.1] yes=25,no=26,missing=25
				25:leaf=-0.00458045
				26:leaf=0.0112841
		6:[f26<991.16] yes=13,no=14,missing=13
			13:[f20<1.46312e+06] yes=27,no=28,missing=27
				27:leaf=-0.0516416
				28:leaf=-0.000495026
			14:[f27<623.943] yes=29,no=30,missing=29
				29:leaf=-0.0704484
				30:leaf=-0.0276275
booster[93]:
0:[f12<2526.25] yes=1,no=2,missing=1
	1:[f42<7.5504] yes=3,no=4,missing=3
		3:[f35<2.5] yes=7,no=8,missing=7
			7:[f12<1427.5] yes=15,no=16,missing=15
				15:leaf=0.0187813
				16:leaf=-0.00606791
			8:[f9<2390.1] yes=17,no=18,missing=17
				17:leaf=0.0199114
				18:leaf=0.0766378
		4:[f44<0.5] yes=9,no=10,missing=9
			9:[f38<-73.9854] yes=19,no=20,missing=19
				19:leaf=-0.0105555
				20:leaf=-0.0280514
			10:[f42<8.01102] yes=21,no=22,missing=21
				21:leaf=0.00737675
				22:leaf=-0.0121283
	2:[f42<8.13021] yes=5,no=6,missing=5
		5:[f8<3954.65] yes=11,no=12,missing=11
			11:[f37<0.5] yes=23,no=24,missing=23
				23:leaf=-0.0425883
				24:leaf=-0.0234266
			12:[f36<40.7388] yes=25,no=26,missing=25
				25:leaf=0.0681174
				26:leaf=-0.0248165
		6:[f28<497.376] yes=13,no=14,missing=13
			13:leaf=0.00161049
			14:[f27<78.6447] yes=27,no=28,missing=27
				27:leaf=-0.0213297
				28:leaf=-0.0462895
booster[94]:
0:[f12<2802.5] yes=1,no=2,missing=1
	1:[f47<3.5] yes=3,no=4,missing=3
		3:[f48<0.5] yes=7,no=8,missing=7
			7:[f36<40.7602] yes=15,no=16,missing=15
				15:leaf=0.00596397
				16:leaf=-0.0133357
			8:[f32<0.5] yes=17,no=18,missing=17
				17:leaf=-0.0280162
				18:leaf=-0.00239286
		4:[f18<4.5] yes=9,no=10,missing=9
			9:[f8<5432.5] yes=19,no=20,missing=19
				19:leaf=0.00305315
				20:leaf=0.0136175
			10:[f45<45.5] yes=21,no=22,missing=21
				21:leaf=-0.02652
				22:leaf=-0.0606011
	2:[f45<50.5] yes=5,no=6,missing=5
		5:[f46<7.5] yes=11,no=12,missing=11
			11:[f10<3982.5] yes=23,no=24,missing=23
				23:leaf=-0.043254
				24:leaf=-0.0207581
			12:[f47<1.5] yes=25,no=26,missing=25
				25:leaf=-0.0484147
				26:leaf=0.0106959
		6:[f8<7657.25] yes=13,no=14,missing=13
			13:[f36<40.7122] yes=27,no=28,missing=27
				27:leaf=-0.0224339
				28:leaf=-0.00131592
			14:[f52<1.5] yes=29,no=30,missing=29
				29:leaf=-0.0460071
				30:leaf=-0.00850613
booster[95]:
0:[f42<7.8336] yes=1,no=2,missing=1
	1:[f48<0.5] yes=3,no=4,missing=3
		3:[f35<0.5] yes=7,no=8,missing=7
			7:[f27<1004.45] yes=15,no=16,missing=15
				15:leaf=-0.00310359
				16:leaf=0.0318488
			8:[f12<1081.25] yes=17,no=18,missing=17
				17:leaf=-0.0417008
				18:leaf=-0.0143026
		4:[f25<0.5] yes=9,no=10,missing=9
			9:[f5<2498.2] yes=19,no=20,missing=19
				19:leaf=0.0276647
				20:leaf=-0.000996609
			10:[f27<103.798] yes=21,no=22,missing=21
				21:leaf=-0.076029
				22:leaf=-0.00811123
	2:[f37<0.5] yes=5,no=6,missing=5
		5:[f32<0.5] yes=11,no=12,missing=11
			11:[f12<1650.4] yes=23,no=24,missing=23
				23:leaf=0.0151173
				24:leaf=0.0335953
			12:[f28<4942.68] yes=25,no=26,missing=25
				25:leaf=0.00194167
				26:leaf=0.0297352
		6:[f12<1549.12] yes=13,no=14,missing=13
			13:[f28<4456.77] yes=27,no=28,missing=27
				27:leaf=-0.0234709
				28:leaf=0.00706192
			14:[f36<40.7581] yes=29,no=30,missing=29
				29:leaf=0.00239402
				30:leaf=0.0183734
booster[96]:
0:[f12<1601.75] yes=1,no=2,missing=1
	1:[f42<7.54803] yes=3,no=4,missing=3
		3:[f45<15.5] yes=7,no=8,missing=7
			7:[f36<40.6915] yes=15,no=16,missing=15
				15:leaf=0.00999538
				16:leaf=-0.0397484
			8:[f8<1721.25] yes=17,no=18,missing=17
				17:leaf=-0.000582871
				18:leaf=0.0303638
		4:[f28<7822.05] yes=9,no=10,missing=9
			9:[f27<423.826] yes=19,no=20,missing=19
				19:leaf=0.00963339
				20:leaf=-0.0131422
			10:[f12<749.25] yes=21,no=22,missing=21
				21:leaf=0.0211481
				22:leaf=-0.0307812
	2:[f42<7.83499] yes=5,no=6,missing=5
		5:[f41<2523.5] yes=11,no=12,missing=11
			11:[f46<4.5] yes=23,no=24,missing=23
				23:leaf=-0.0233597
				24:leaf=-0.00464533
			12:[f13<0.5] yes=25,no=26,missing=25
				25:leaf=-0.0063385
				26:leaf=0.0271556
		6:[f36<40.7402] yes=13,no=14,missing=13
			13:[f28<2958.16] yes=27,no=28,missing=27
				27:leaf=0.00807888
				28:leaf=-0.0299136
			14:[f37<2.5] yes=29,no=30,missing=29
				29:leaf=-0.0378314
				30:leaf=0.0576044
booster[97]:
0:[f14<0.00197028] yes=1,no=2,missing=1
	1:[f49<0.516072] yes=3,no=4,missing=3
		3:[f2<1717.2] yes=7,no=8,missing=7
			7:[f1<2525] yes=15,no=16,missing=15
				15:leaf=0.000309471
				16:leaf=0.0682214
			8:[f2<2008.75] yes=17,no=18,missing=17
				17:leaf=-0.0440022
				18:leaf=0.0135487
		4:[f12<2696.25] yes=9,no=10,missing=9
			9:[f38<-73.981] yes=19,no=20,missing=19
				19:leaf=0.0021449
				20:leaf=-0.0289848
			10:[f10<6712.5] yes=21,no=22,missing=21
				21:leaf=-0.0467427
				22:leaf=-0.0202713
	2:[f8<8112] yes=5,no=6,missing=5
		5:[f25<0.5] yes=11,no=12,missing=11
			11:[f48<0.5] yes=23,no=24,missing=23
				23:leaf=0.00265815
				24:leaf=-0.0120895
			12:[f28<586.777] yes=25,no=26,missing=25
				25:leaf=-0.0215698
				26:leaf=0.00707229
		6:[f0<2600] yes=13,no=14,missing=13
			13:[f37<0.5] yes=27,no=28,missing=27
				27:leaf=0.0764515
				28:leaf=-0.00888961
			14:[f39<1.5] yes=29,no=30,missing=29
				29:leaf=-0.0412598
				30:leaf=0.0148118
booster[98]:
0:[f42<7.93827] yes=1,no=2,missing=1
	1:[f6<2684.25] yes=3,no=4,missing=3
		3:[f42<7.6928] yes=7,no=8,missing=7
			7:[f48<0.5] yes=15,no=16,missing=15
				15:leaf=-0.0121716
				16:leaf=0.0139598
			8:[f25<0.5] yes=17,no=18,missing=17
				17:leaf=0.0214038
				18:leaf=0.00134105
		4:[f37<0.5] yes=9,no=10,missing=9
			9:[f48<0.5] yes=19,no=20,missing=19
				19:leaf=-0.0144197
				20:leaf=0.0131108
			10:[f1<3162.5] yes=21,no=22,missing=21
				21:leaf=0.0348155
				22:leaf=-0.0257682
	2:[f12<1753.75] yes=5,no=6,missing=5
		5:[f40<3204.78] yes=11,no=12,missing=11
			11:[f25<0.5] yes=23,no=24,missing=23
				23:leaf=0.0374565
				24:leaf=0.0139018
			12:[f27<463.446] yes=25,no=26,missing=25
				25:leaf=-0.0105776
				26:leaf=0.00841048
		6:[f37<0.5] yes=13,no=14,missing=13
			13:[f38<-73.9964] yes=27,no=28,missing=27
				27:leaf=0.0119688
				28:leaf=0.0346913
			14:[f38<-73.9825] yes=29,no=30,missing=29
				29:leaf=0.00579205
				30:leaf=0.0220557
booster[99]:
0:[f12<2331.17] yes=1,no=2,missing=1
	1:[f42<8.00936] yes=3,no=4,missing=3
		3:[f3<2997.5] yes=7,no=8,missing=7
			7:[f31<0.5] yes=15,no=16,missing=15
				15:leaf=-0.00612487
				16:leaf=0.0730359
			8:[f17<1.25] yes=17,no=18,missing=17
				17:leaf=0.0383185
				18:leaf=-0.00208475
		4:[f26<644.737] yes=9,no=10,missing=9
			9:[f28<4998.22] yes=19,no=20,missing=19
				19:leaf=0.00988487
				20:leaf=-0.0361398
			10:[f44<0.5] yes=21,no=22,missing=21
				21:leaf=-0.0357999
				22:leaf=-0.0152486
	2:[f31<0.5] yes=5,no=6,missing=5
		5:[f42<8.11687] yes=11,no=12,missing=11
			11:[f44<0.5] yes=23,no=24,missing=23
				23:leaf=-0.0352346
				24:leaf=-0.0141005
			12:[f28<497.376] yes=25,no=26,missing=25
				25:leaf=0.00534224
				26:leaf=-0.0442493
		6:[f14<0.107319] yes=13,no=14,missing=13
			13:[f2<2534.25] yes=27,no=28,missing=27
				27:leaf=-0.0241496
				28:leaf=0.0491747
			14:leaf=0.0844067
booster[100]:
0:[f42<8.57471] yes=1,no=2,missing=1
	1:[f2<3294.2] yes=3,no=4,missing=3
		3:[f42<8.20234] yes=7,no=8,missing=7
			7:[f9<3426.9] yes=15,no=16,missing=15
				15:leaf=-0.000984791
				16:leaf=0.00832681
			8:[f26<443.614] yes=17,no=18,missing=17
				17:leaf=0.0113728
				18:leaf=-0.0221866
		4:[f42<8.323] yes=9,no=10,missing=9
			9:[f9<4369.4] yes=19,no=20,missing=19
				19:leaf=-0.0054491
				20:leaf=0.0299208
			10:[f9<5285.6] yes=21,no=22,missing=21
				21:leaf=-0.00982306
				22:leaf=0.0173247
	2:[f2<4359.3] yes=5,no=6,missing=5
		5:[f4<5339.5] yes=11,no=12,missing=11
			11:[f20<1.45992e+06] yes=23,no=24,missing=23
				23:leaf=0.0108992
				24:leaf=-0.0334073
			12:[f45<113.5] yes=25,no=26,missing=25
				25:leaf=-0.0312724
				26:leaf=0.0510754
		6:[f9<9083] yes=13,no=14,missing=13
			13:[f9<5587.5] yes=27,no=28,missing=27
				27:leaf=-0.0439675
				28:leaf=0.00710397
			14:[f42<8.74392] yes=29,no=30,missing=29
				29:leaf=0.0148407
				30:leaf=-0.0403007
booster[101]:
0:[f47<0.5] yes=1,no=2,missing=1
	1:[f38<-73.9339] yes=3,no=4,missing=3
		3:[f35<2.5] yes=7,no=8,missing=7
			7:[f36<40.5879] yes=15,no=16,missing=15
				15:leaf=-0.00648654
				16:leaf=0.0442076
			8:[f12<1604.17] yes=17,no=18,missing=17
				17:leaf=-0.0302655
				18:leaf=0.0334334
		4:[f36<40.7519] yes=9,no=10,missing=9
			9:[f1<2950] yes=19,no=20,missing=19
				19:leaf=-0.000531758
				20:leaf=0.0538049
			10:[f36<40.8525] yes=21,no=22,missing=21
				21:leaf=-0.0551592
				22:leaf=0.0102019
	2:[f31<0.5] yes=5,no=6,missing=5
		5:[f12<2918.25] yes=11,no=12,missing=11
			11:[f38<-73.9772] yes=23,no=24,missing=23
				23:leaf=-0.00327243
				24:leaf=0.00762714
			12:[f12<4396.25] yes=25,no=26,missing=25
				25:leaf=0.0152131
				26:leaf=0.0409126
		6:[f12<3712.5] yes=13,no=14,missing=13
			13:[f20<1.46549e+06] yes=27,no=28,missing=27
				27:leaf=-0.0595125
				28:leaf=-0.0191444
			14:[f20<1.46125e+06] yes=29,no=30,missing=29
				29:leaf=-0.0356593
				30:leaf=0.0394494
booster[102]:
0:[f42<7.8648] yes=1,no=2,missing=1
	1:[f4<2698.1] yes=3,no=4,missing=3
		3:[f42<7.50246] yes=7,no=8,missing=7
			7:[f6<1857.5] yes=15,no=16,missing=15
				15:leaf=-0.00437348
				16:leaf=0.0211888
			8:[f31<0.5] yes=17,no=18,missing=17
				17:leaf=-0.0137515
				18:leaf=0.0577403
		4:[f47<1.5] yes=9,no=10,missing=9
			9:leaf=-0.0551966
			10:[f11<1.75] yes=19,no=20,missing=19
				19:leaf=0.0172074
				20:leaf=0.0559595
	2:[f36<40.7549] yes=5,no=6,missing=5
		5:[f28<5071.9] yes=11,no=12,missing=11
			11:[f40<3247.69] yes=21,no=22,missing=21
				21:leaf=-0.0297564
				22:leaf=-0.00154988
			12:[f46<10.5] yes=23,no=24,missing=23
				23:leaf=-0.034182
				24:leaf=-0.0102038
		6:[f31<0.5] yes=13,no=14,missing=13
			13:[f35<3.5] yes=25,no=26,missing=25
				25:leaf=-0.0343965
				26:leaf=-0.0104806
			14:[f20<1.46139e+06] yes=27,no=28,missing=27
				27:leaf=0.0985939
				28:leaf=-0.00678134
booster[103]:
0:[f12<4002.5] yes=1,no=2,missing=1
	1:[f47<3.5] yes=3,no=4,missing=3
		3:[f38<-73.9848] yes=7,no=8,missing=7
			7:[f14<0.0123775] yes=15,no=16,missing=15
				15:leaf=-0.0274487
				16:leaf=0.0053461
			8:[f49<1.19346] yes=17,no=18,missing=17
				17:leaf=-0.00743285
				18:leaf=-0.0318562
		4:[f31<0.5] yes=9,no=10,missing=9
			9:[f18<4.5] yes=19,no=20,missing=19
				19:leaf=0.00258461
				20:leaf=-0.0519002
